{
    "layers": [
        {
            "activation": 1,
            "biases": [
                -1.1820598666556492e-10,
                -1.0072134237759656e-09,
                -1.7002055319181864e-10,
                -4.09862338512923e-10,
                -5.521063606295229e-10,
                2.2903488827719087e-10,
                5.416348619613487e-11,
                5.191684859795487e-10,
                9.962708436006551e-11,
                1.1032990077097793e-09,
                1.6345797328523592e-12,
                -1.917071612567156e-09,
                6.762723714359709e-10,
                0.0,
                -1.1273390554400464e-10,
                8.194848966081025e-11,
                1.5276248321871577e-10,
                1.45565476339371e-10,
                -1.9120398320193743e-10,
                7.012390668137414e-10,
                0.0,
                2.4188728797724934e-10,
                -8.303283616228896e-10,
                -5.513383638522384e-10,
                -7.305139826385698e-10,
                0.0,
                -2.66259680969938e-10,
                4.365033334785551e-10,
                1.2999012977132907e-09,
                1.9402864731565828e-11,
                1.1598973517767952e-11,
                1.0074688305827806e-10,
                8.724863054254683e-10,
                -8.690870800798223e-10,
                -8.154928954340335e-10,
                2.361840722997499e-10,
                -1.142889879957032e-10,
                7.396150358829345e-10,
                -5.384792611806688e-10,
                1.257997817027956e-09,
                7.03883507036096e-10,
                -3.7119646245642457e-10,
                6.664523377608589e-10,
                -4.017181726156949e-11,
                -1.5389642338270448e-10,
                7.967483894866234e-10,
                -8.395039663433579e-10,
                1.3524672493048229e-09,
                -2.666287850228155e-11,
                -3.381284835457521e-11,
                -8.428300279916812e-10,
                -2.6953575482657754e-10,
                0.0,
                3.620571342732859e-10,
                3.624907873867045e-10,
                3.378770596640379e-10,
                -2.0728797844871139e-10,
                0.0,
                -1.0652515536335727e-09,
                1.580613140372833e-10,
                0.0,
                -4.361909444750012e-10,
                -6.570937682859324e-10,
                8.076719848482128e-12,
                1.9878453050292677e-11,
                0.0,
                8.825874475704154e-10,
                -3.955866745286585e-10,
                9.81384973286481e-11,
                3.141757132230083e-10,
                -8.928218719894687e-10,
                -1.5817266385553808e-09,
                4.380109053236936e-10,
                2.2521325082625054e-11,
                0.0,
                -1.1470417948800105e-09,
                -3.547723226304811e-10,
                0.0,
                -4.160947975062612e-10,
                -2.572775499587454e-11,
                3.4219471700680515e-10,
                0.0,
                -1.4368002343445596e-09,
                -5.797740065816015e-10,
                -7.087260223137548e-10,
                1.396875393133712e-10,
                -2.441014612664105e-10,
                8.995914430043328e-11,
                -4.123703115088695e-11,
                1.579016140063061e-09,
                -6.78671840947942e-10,
                3.9038886706643794e-11,
                0.0,
                -7.655943656814657e-10,
                1.1196901739118914e-10,
                0.0,
                -9.212460655438903e-11,
                -4.2410544520699034e-10,
                -2.424165868042394e-10,
                -2.952018907098619e-10,
                0.0,
                -2.6658097951326454e-10,
                6.383992778857817e-10,
                1.8520741884575642e-10,
                1.64329772012195e-09,
                1.6328970398049591e-09,
                5.453215656814336e-10,
                -4.4668813786730155e-11,
                3.7096683364046257e-11,
                2.6999164015606425e-10,
                -2.369915375055598e-10,
                3.0637950509948553e-10,
                0.0,
                6.190308265985323e-10,
                8.102245541152797e-10,
                9.713259085941672e-10,
                0.0,
                -1.1354622797554725e-09,
                -1.1579140979378622e-09,
                -9.666523137497052e-10,
                3.329499453919027e-10,
                9.574718795590798e-10,
                1.036690316924549e-10,
                -2.961129397238693e-10,
                1.4849249607706838e-10,
                1.5729713087608843e-09,
                4.117105822931677e-10,
                -2.841958057775429e-10
            ],
            "inputSize": 14,
            "outputSize": 128,
            "weights": [
                [
                    0.00025987206026911736,
                    -0.0001852757704909891,
                    0.00021996225405018777,
                    0.00030615879222750664,
                    -0.0003453166573308408,
                    -0.0002580185537226498,
                    0.0003548986278474331,
                    -0.0005305258091539145,
                    -0.0002903273270931095,
                    -0.00045619194861501455,
                    4.595183418132365e-05,
                    -0.0004492761509027332,
                    -0.00011224132322240621,
                    -0.0006230947328731418
                ],
                [
                    -3.3242507925024256e-05,
                    0.00015069525397848338,
                    -0.00010849200043594465,
                    0.00018072738021146506,
                    -6.0825212131021544e-05,
                    0.00011918473319383338,
                    0.0002918485552072525,
                    0.0006054086261428893,
                    0.00022560343495570123,
                    0.0004633259668480605,
                    -0.00034087279345840216,
                    -0.0006551055703312159,
                    0.00010765527258627117,
                    0.00035956280771642923
                ],
                [
                    1.0028664974015555e-06,
                    -0.00035829050466418266,
                    -0.00024196432786993682,
                    0.0002032077609328553,
                    3.236539487261325e-05,
                    -0.00010809493687702343,
                    -0.0006949823000468314,
                    0.0007062536897137761,
                    -5.677028821082786e-05,
                    0.0002762657532002777,
                    8.994530071504414e-05,
                    4.866170911554946e-06,
                    0.00025126567925326526,
                    0.000540410925168544
                ],
                [
                    -0.0001369985839119181,
                    -7.70421902416274e-05,
                    2.1135992938070558e-05,
                    -0.0004172005283180624,
                    0.00040938681922852993,
                    -0.0005099410773254931,
                    0.00024405863950960338,
                    -0.0006035385304130614,
                    0.0005298046162351966,
                    -0.0003692544996738434,
                    0.00021335184283088893,
                    -0.00041327369399368763,
                    -0.00034101365599781275,
                    0.0003343015559948981
                ],
                [
                    -7.822015322744846e-05,
                    -6.134399154689163e-05,
                    -0.0005036666407249868,
                    -0.0007328427745960653,
                    6.616327300434932e-05,
                    0.00011423448449932039,
                    0.00024590478278696537,
                    0.00031362727168016136,
                    0.0005549933994188905,
                    -8.20726781967096e-05,
                    -2.2973166778683662e-05,
                    -0.0002517738030292094,
                    0.00015149961109273136,
                    -0.0006293808110058308
                ],
                [
                    0.00031638616928830743,
                    -8.040823740884662e-05,
                    8.970712769951206e-06,
                    0.00016949797281995416,
                    -0.00023763028730172664,
                    0.0005447827279567719,
                    0.000268109462922439,
                    -8.94330078153871e-05,
                    -0.0005769790732301772,
                    0.0006073577678762376,
                    6.979853060329333e-05,
                    -0.00013590563321486115,
                    7.049799023661762e-05,
                    -9.276661148760468e-05
                ],
                [
                    9.855721145868301e-05,
                    0.0005895753856748343,
                    -0.0007235611556097865,
                    4.1987033910118043e-05,
                    -0.00011049184831790626,
                    -0.0006827902980148792,
                    0.00019276828970760107,
                    -0.0003901449090335518,
                    -0.00042227713856846094,
                    -0.00026960429386235774,
                    9.398676047567278e-05,
                    0.00037437985884025693,
                    0.00018681370420381427,
                    -0.0001662334834691137
                ],
                [
                    0.00034520443296059966,
                    0.0006470447406172752,
                    -1.8612963685882278e-05,
                    0.0004368303343653679,
                    2.232479710073676e-05,
                    -0.0002623969630803913,
                    0.0004954937030561268,
                    -0.0004379690799396485,
                    -0.00046556719462387264,
                    -0.0005274838185869157,
                    -9.487326315138489e-05,
                    0.00019462093769107014,
                    -0.00019863042689394206,
                    -0.0005565009196288884
                ],
                [
                    0.0005264873616397381,
                    -2.788873462122865e-05,
                    -0.0001256075338460505,
                    0.0003750249161385,
                    -0.0001287896157009527,
                    9.135120490100235e-05,
                    0.00034722828422673047,
                    0.0005816375487484038,
                    0.000652594375424087,
                    -0.0005924528813920915,
                    0.0003785773296840489,
                    0.0009082974283955991,
                    -0.00011554137745406479,
                    -0.000271341617917642
                ],
                [
                    -0.0002508966426830739,
                    -8.086045272648335e-05,
                    -0.0001774017873685807,
                    0.0008581717847846448,
                    -0.00036377989454194903,
                    0.0002059843100141734,
                    -0.0001899978960864246,
                    -0.00031758545082993805,
                    -0.0005167064373381436,
                    0.00047016440657898784,
                    0.0009085629135370255,
                    1.880120180430822e-05,
                    0.00034414356923662126,
                    7.472828292520717e-05
                ],
                [
                    -0.0002085082815028727,
                    -0.0002710235130507499,
                    0.0002511642233002931,
                    8.59743231558241e-05,
                    -0.0004782640025950968,
                    -0.00035718028084374964,
                    0.00032812764402478933,
                    0.00034884430351667106,
                    -0.0007915117312222719,
                    -9.419958951184526e-05,
                    -0.0005026899743825197,
                    -0.0007126275449991226,
                    -0.0003633712185546756,
                    0.0002672446717042476
                ],
                [
                    0.00057744060177356,
                    -0.00029307775548659265,
                    0.00016693850921001285,
                    2.951258466055151e-06,
                    0.0002432155451970175,
                    0.00023867831623647362,
                    0.00013569617294706404,
                    -0.0004723053425550461,
                    -8.170332876034081e-05,
                    0.00029974509379826486,
                    0.0003121788031421602,
                    -0.00020543918071780354,
                    -0.0005171223892830312,
                    4.6946017391746864e-05
                ],
                [
                    0.0005275281146168709,
                    -1.1990209713985678e-06,
                    -0.0006164225051179528,
                    0.00033217607415281236,
                    9.596694872016087e-05,
                    0.000354544201400131,
                    9.602966019883752e-05,
                    0.0003737735969480127,
                    -0.0004694741510320455,
                    -0.00026766269002109766,
                    0.0002108583867084235,
                    0.0004671915667131543,
                    -0.00010786117491079494,
                    0.00011900381650775671
                ],
                [
                    0.00017952841881196946,
                    -0.0002500851114746183,
                    0.0006162332138046622,
                    -0.00030352998874150217,
                    8.572330261813477e-05,
                    -0.0003975115541834384,
                    7.620562428201083e-06,
                    0.0007218341343104839,
                    0.00032830817508511245,
                    3.500837556202896e-05,
                    0.0002927385794464499,
                    -0.0004455193702597171,
                    0.00029381224885582924,
                    -0.0002691394474823028
                ],
                [
                    -0.0005615520058199763,
                    0.00011506352166179568,
                    -0.0007396223954856396,
                    -0.0002372950257267803,
                    0.0006168879335746169,
                    -7.013333379290998e-05,
                    0.00030167962540872395,
                    0.000894369266461581,
                    0.00033816462382674217,
                    -0.00021527735225390643,
                    0.00024496365222148597,
                    -0.00025628277217037976,
                    -0.0006777461967431009,
                    -0.00015492591774091125
                ],
                [
                    0.0005676820874214172,
                    -0.0007322168094106019,
                    -0.0007061018841341138,
                    -8.690045069670305e-05,
                    -0.00035388622200116515,
                    -8.311222336487845e-05,
                    -0.0004413061833474785,
                    0.00039340154035016894,
                    -0.0003386731259524822,
                    0.0004675602831412107,
                    -0.0003422546142246574,
                    0.00011599772551562637,
                    -5.4178275604499504e-05,
                    0.0002221578179160133
                ],
                [
                    0.00038408939144574106,
                    -0.0004859250329900533,
                    -9.69448738032952e-05,
                    -0.00014540737902279943,
                    0.00011717602319549769,
                    0.0010134862968698144,
                    -3.1070234399521723e-05,
                    -0.00041854134178720415,
                    -0.0005228607915341854,
                    -0.00010881050548050553,
                    -2.765692443063017e-05,
                    0.00021620521147269756,
                    -7.838211604394019e-05,
                    0.00016465842782054096
                ],
                [
                    0.0004491379077080637,
                    0.00034216741914860904,
                    -0.0004022806533612311,
                    -5.34984574187547e-05,
                    8.72028322191909e-05,
                    0.000820200948510319,
                    -3.522868064465001e-05,
                    0.00039389185258187354,
                    0.0006386976456269622,
                    -0.0007918281480669975,
                    0.00018610585539136082,
                    -0.00020511867478489876,
                    9.146107913693413e-05,
                    -8.241338218795136e-05
                ],
                [
                    0.0006355424993671477,
                    -0.0003120812471024692,
                    4.070136492373422e-05,
                    0.000488417805172503,
                    0.0002372363378526643,
                    -0.0003346068842802197,
                    -8.498327224515378e-05,
                    1.607915328349918e-05,
                    -0.00022829229419585317,
                    6.563607166754082e-05,
                    0.00015470667858608067,
                    0.00016276430687867105,
                    -0.00019584553956519812,
                    0.00032740208553150296
                ],
                [
                    0.0002985045430250466,
                    0.0007599125965498388,
                    0.00011869522131746635,
                    7.5496245699469e-05,
                    0.0007385055650956929,
                    -0.00044704179163090885,
                    9.244749526260421e-05,
                    0.00024793954798951745,
                    8.938515384215862e-05,
                    -0.00046010303776711226,
                    -0.00010700663551688194,
                    -0.0001980753877433017,
                    -0.0001655081141507253,
                    0.0005362118245102465
                ],
                [
                    0.0002270179829793051,
                    0.00025656921206973493,
                    6.869669050502125e-06,
                    -0.0001395331637468189,
                    -0.0008659068844281137,
                    -0.0003620961797423661,
                    -0.0007926953257992864,
                    -5.882552795810625e-05,
                    -0.0004610041796695441,
                    -3.8077080262155505e-06,
                    -0.00028094861772842705,
                    -0.0005257630837149918,
                    0.0004646037705242634,
                    0.00024118019791785628
                ],
                [
                    -0.000535852275788784,
                    -0.0002646425273269415,
                    0.0002011335891438648,
                    0.0001693354861345142,
                    0.0004028412513434887,
                    -5.2805222367169335e-05,
                    -8.738098404137418e-05,
                    0.0006529861711896956,
                    0.0002240500325569883,
                    -0.0006404656451195478,
                    6.569307151949033e-05,
                    -0.00010655452933860943,
                    0.00023289576347451657,
                    0.0001749047078192234
                ],
                [
                    0.0002689346729312092,
                    -0.0005973895895294845,
                    -0.0003534528077580035,
                    -0.00014411969459615648,
                    -0.00017420697258785367,
                    0.00035010610008612275,
                    0.00010006890079239383,
                    -0.00022498858743347228,
                    0.0003647760022431612,
                    -6.027582276146859e-05,
                    0.00031436720746569335,
                    -0.0003091040416620672,
                    0.0004621715925168246,
                    0.00024112030223477632
                ],
                [
                    -0.00021063577150925994,
                    -8.325302769662812e-05,
                    -9.622232028050348e-05,
                    -0.00019939626508858055,
                    -0.00038374747964553535,
                    3.881841985275969e-05,
                    0.00040094141149893403,
                    0.00041917600901797414,
                    0.0005534159136004746,
                    2.8587489850906422e-06,
                    -0.0004447454120963812,
                    -0.00028025556821376085,
                    -4.094482574146241e-05,
                    0.0002675935684237629
                ],
                [
                    0.0005591504159383476,
                    0.0006020877626724541,
                    -0.0004750803636852652,
                    0.0001349463127553463,
                    4.201408592052758e-05,
                    0.00057839578948915,
                    0.00013882351049687713,
                    0.0004640898259822279,
                    -0.0006658924976363778,
                    -0.0004778224683832377,
                    -0.00042899182881228626,
                    0.00014222161553334445,
                    -6.122530612628907e-05,
                    -9.379934635944664e-05
                ],
                [
                    -0.0005160458968020976,
                    -0.00026471648016013205,
                    3.631732033682056e-05,
                    -0.0004587756411638111,
                    -0.000628424109891057,
                    7.927378646854777e-06,
                    0.00032942023244686425,
                    -0.0001990071323234588,
                    0.00012835806410294026,
                    0.0005883943522349,
                    -0.00029714900301769376,
                    -8.225499914260581e-05,
                    -1.2237813280080445e-05,
                    -1.033379157888703e-05
                ],
                [
                    0.0004177430528216064,
                    2.4008084437809885e-05,
                    0.0008144142339006066,
                    -0.000321466097375378,
                    0.0004079196078237146,
                    -6.707468128297478e-05,
                    -0.0008934974321164191,
                    -0.00020321419287938625,
                    5.0592978368513286e-05,
                    -7.824794738553464e-05,
                    0.0001747702481225133,
                    -0.0006478226860053837,
                    -0.0003448489587754011,
                    0.00015521861496381462
                ],
                [
                    3.332442588543927e-07,
                    -0.0004570462042465806,
                    -0.0005058140959590673,
                    4.738071947940625e-05,
                    0.00048635798157192767,
                    -0.00017427578859496862,
                    -0.0003999750770162791,
                    0.0005291396519169211,
                    -5.65590598853305e-05,
                    0.0001841292396420613,
                    0.000449649611255154,
                    -0.00020189389761071652,
                    -0.0003096125437878072,
                    0.00043174310121685266
                ],
                [
                    0.0004567013820633292,
                    -0.0007602313417010009,
                    -4.454041118151508e-05,
                    -0.0004829745157621801,
                    0.0004251912469044328,
                    0.0003444846370257437,
                    0.0005272254347801208,
                    5.9000823966925964e-05,
                    -0.000515641993843019,
                    -0.0005176650593057275,
                    -0.0003390616620890796,
                    -7.044248195597902e-05,
                    0.00032220096909441054,
                    -0.00027582969050854445
                ],
                [
                    0.0002738104376476258,
                    0.00038543459959328175,
                    -0.000342837767675519,
                    -4.234240259393118e-05,
                    -0.00016717945982236415,
                    -0.0002210964448750019,
                    0.0003189608396496624,
                    -0.0005710285622626543,
                    5.395752305048518e-05,
                    -0.00022203061962500215,
                    0.0004012975550722331,
                    -0.00012355178478173912,
                    0.00012118767335778102,
                    6.060731902834959e-05
                ],
                [
                    0.0006121164769865572,
                    -0.000492527149617672,
                    -0.0004995558992959559,
                    -0.0005124430754221976,
                    -0.0005415172199718654,
                    -0.00019950589921791106,
                    -0.000385060760891065,
                    -0.00017231711535714567,
                    5.7999073760584e-05,
                    -0.0004746885097119957,
                    0.00010422874038340524,
                    -0.0001285358885070309,
                    0.00016508960106875747,
                    0.00035645024036057293
                ],
                [
                    0.00027694032178260386,
                    -0.00039310261490754783,
                    -0.00024555070558562875,
                    -0.00015559208986815065,
                    0.00019514499581418931,
                    -7.200050458777696e-05,
                    -0.00029673086828552186,
                    -2.387726908636978e-06,
                    0.00013122025120537728,
                    0.00025221440591849387,
                    0.0005733100697398186,
                    -0.000162668657139875,
                    0.0004530854057520628,
                    0.00015444334712810814
                ],
                [
                    3.404427116038278e-05,
                    -2.5385679691680707e-05,
                    -0.0001824089849833399,
                    0.00018605170771479607,
                    0.0004440428165253252,
                    0.00039948441553860903,
                    6.186139944475144e-05,
                    -0.0002883558045141399,
                    -0.00033807146246545017,
                    1.5058583812788129e-05,
                    0.0005096480017527938,
                    -0.0006378271500580013,
                    0.0001827755622798577,
                    6.178672629175708e-05
                ],
                [
                    0.00022239857935346663,
                    0.00028718492831103504,
                    0.00018011551583185792,
                    0.0004646953893825412,
                    -0.00012007404438918456,
                    0.00042892032070085406,
                    0.0001556760398671031,
                    2.164841498597525e-05,
                    0.00031216672505252063,
                    -5.6117507483577356e-05,
                    -6.113445124356076e-05,
                    0.00026222754968330264,
                    -0.0009527496877126396,
                    1.80469414772233e-05
                ],
                [
                    0.00015209984849207103,
                    -7.08663064870052e-05,
                    0.00035559828393161297,
                    -0.0002718387986533344,
                    0.000577600731048733,
                    0.0003494864795356989,
                    3.0584997148253024e-05,
                    4.802623516297899e-05,
                    9.24547275644727e-05,
                    -0.0004402732301969081,
                    0.0005698176100850105,
                    -0.0004985411651432514,
                    -0.0006160967168398201,
                    -0.00017302371270488948
                ],
                [
                    -0.00040579563938081264,
                    -7.283954619197175e-05,
                    9.112840780289844e-05,
                    0.0002121596335200593,
                    3.625620229286142e-05,
                    -0.00021081685554236174,
                    4.8239558964269236e-05,
                    -0.0007882573409006,
                    -0.0006005102186463773,
                    0.00010395098070148379,
                    0.00039766691043041646,
                    9.307338586950209e-06,
                    7.445268420269713e-05,
                    -0.0004579005762934685
                ],
                [
                    0.0004460903292056173,
                    -5.506006345967762e-05,
                    0.00047612146590836346,
                    -0.000571770709939301,
                    0.0003600055060815066,
                    -0.0003280767414253205,
                    0.0005083835567347705,
                    -0.00021970007219351828,
                    -0.00012330067693255842,
                    -6.296335050137714e-05,
                    0.0003409927012398839,
                    -7.612129411427304e-05,
                    0.0005888613522984087,
                    -0.00018583112978376448
                ],
                [
                    -8.485470607411116e-05,
                    0.0002256385632790625,
                    0.00010741120058810338,
                    -0.00027326730196364224,
                    5.765766400145367e-05,
                    0.0007899393676780164,
                    0.0004414266732055694,
                    5.882443474547472e-06,
                    -0.0006536917644552886,
                    -0.0007325027836486697,
                    9.852186849457212e-06,
                    0.0004997269134037197,
                    -0.0003527897351887077,
                    -0.0005826858105137944
                ],
                [
                    0.0001516699994681403,
                    0.00012912359670735896,
                    0.00041797306039370596,
                    -1.6695583326509222e-05,
                    -0.0008606844348832965,
                    0.00033450944465585053,
                    -0.0003801927377935499,
                    6.848077464383096e-05,
                    1.4915230167389382e-05,
                    -0.00019079362391494215,
                    -0.0002591033698990941,
                    -0.0005666976212523878,
                    -0.0003138858883175999,
                    -0.0002865494752768427
                ],
                [
                    0.00040765025187283754,
                    -0.0003251570160500705,
                    -0.00021585801732726395,
                    0.0002770923310890794,
                    -0.00021703045058529824,
                    0.0003324650169815868,
                    2.0814019080717117e-05,
                    0.00032745584030635655,
                    0.0006993304123170674,
                    0.00023464397236239165,
                    0.00034482486080378294,
                    0.0006868838681839406,
                    0.00010711338836699724,
                    -3.5057979403063655e-05
                ],
                [
                    0.0002364590036449954,
                    7.332443783525378e-05,
                    -0.0009334877249784768,
                    -4.4459025957621634e-05,
                    0.00030646371305920184,
                    0.00024873725487850606,
                    -0.00046994880540296435,
                    -0.00015352391346823424,
                    -0.00027157008298672736,
                    0.0002245544601464644,
                    6.224596290849149e-05,
                    -0.0003626570978667587,
                    0.0001614138891454786,
                    0.0004583264817483723
                ],
                [
                    -0.0003418468695599586,
                    0.0003879226860590279,
                    0.0004221388080623001,
                    0.0002329792914679274,
                    0.00019416249415371567,
                    -0.00010512695735087618,
                    -0.0008785452810116112,
                    -0.00032935113995335996,
                    -0.0003069253289140761,
                    0.0004032835422549397,
                    0.0003377751272637397,
                    -0.0007034387090243399,
                    0.0004830693651456386,
                    -0.00026657796115614474
                ],
                [
                    -0.00010441491758683696,
                    -3.546833249856718e-05,
                    -0.0004686775500886142,
                    0.0007030975539237261,
                    0.0001657375250943005,
                    -0.0007822559564374387,
                    6.608604599023238e-05,
                    -0.0003837078111246228,
                    0.0004959495854564011,
                    -4.30991749453824e-05,
                    -0.00020822492660954595,
                    -0.00013676792150363326,
                    0.00027683854568749666,
                    -0.0002000279928324744
                ],
                [
                    -0.0008148411870934069,
                    -0.00030902071739546955,
                    0.0002273476420668885,
                    0.0008468521991744637,
                    0.0006389972986653447,
                    0.00011276410077698529,
                    -0.00038062280509620905,
                    -0.00014865984849166125,
                    0.00045031507033854723,
                    -0.0004136267816647887,
                    -0.00016274230438284576,
                    4.918480044580065e-05,
                    -0.00015035511751193553,
                    -0.0005117648397572339
                ],
                [
                    0.00045377278001978993,
                    0.0002627616922836751,
                    -0.0010174830676987767,
                    -0.00023631230578757823,
                    0.00032021294464357197,
                    0.00048804088146425784,
                    0.00023101708211470395,
                    -2.8643709811149165e-05,
                    -0.0005680574686266482,
                    -0.00014490466855932027,
                    -0.000277189799817279,
                    1.856096787378192e-05,
                    0.00022975199681241065,
                    -0.0002456267538946122
                ],
                [
                    0.00039251489215530455,
                    -3.308379746158607e-05,
                    3.57812677975744e-05,
                    0.00017367757391184568,
                    1.5519426597165875e-05,
                    -0.0004248797777108848,
                    0.00039066612953320146,
                    0.00029003346571698785,
                    0.0008521363488398492,
                    -3.23528001899831e-05,
                    -0.00017855280020739883,
                    3.132968413410708e-05,
                    -0.0005338792107068002,
                    -0.0001309777144342661
                ],
                [
                    0.0001541037199785933,
                    0.0007860634359531105,
                    -0.00038546364521607757,
                    0.00035245780600234866,
                    0.0005604249890893698,
                    0.00045912255882285535,
                    -0.0002508434990886599,
                    -0.00021301285596564412,
                    -0.0005264747305773199,
                    -0.0006446478655561805,
                    -0.00035970337921753526,
                    -0.0002427752042422071,
                    -8.522142888978124e-05,
                    0.0003512247931212187
                ],
                [
                    -1.0546792509558145e-05,
                    8.99387159734033e-05,
                    0.00010849219688680023,
                    7.751653174636886e-05,
                    -0.0008078928804025054,
                    0.00033211082336492836,
                    -0.001038635615259409,
                    0.00037609311402775347,
                    0.0003671565791592002,
                    -2.3581767891300842e-05,
                    0.0006370148039422929,
                    -9.925486665451899e-05,
                    -3.59105397365056e-05,
                    0.00011950791667914018
                ],
                [
                    0.00012514155241660774,
                    0.000369849381968379,
                    0.00020022304670419544,
                    -0.00016272008360829204,
                    -0.00030847633024677634,
                    -0.0008761307690292597,
                    0.0002869970921892673,
                    -4.414098657434806e-05,
                    -0.0007802840555086732,
                    -9.942329052137211e-05,
                    -0.0004887224640697241,
                    -0.0009147003293037415,
                    -0.00027468649204820395,
                    0.00045269745169207454
                ],
                [
                    -0.00023098291421774775,
                    0.0005155980470590293,
                    -0.0009095551795326173,
                    0.0004352458054199815,
                    0.00015125962090678513,
                    0.0003636249457485974,
                    -0.0002004276611842215,
                    0.00030690571293234825,
                    -0.0006946419016458094,
                    0.00041063508251681924,
                    -0.00016097945626825094,
                    0.0002818895154632628,
                    0.00023709679953753948,
                    0.0008727721287868917
                ],
                [
                    0.0005164430476725101,
                    0.00012872352090198547,
                    0.0005449597374536097,
                    0.00046444940380752087,
                    -0.0003215237520635128,
                    0.0006014988175593317,
                    -0.0005401840317063034,
                    0.000429474312113598,
                    0.00011078330862801522,
                    0.00025179440854117274,
                    -0.00011237992293899879,
                    -0.0005231129471212626,
                    -8.482709381496534e-05,
                    -0.00019192611216567457
                ],
                [
                    0.00016249514010269195,
                    -6.961195140320342e-06,
                    -0.0001422577042831108,
                    -0.00010906882380368188,
                    0.0005745214875787497,
                    0.00045392397441901267,
                    0.00010338291031075642,
                    -0.00029762633494101465,
                    0.0003149000112898648,
                    0.00020577924442477524,
                    -0.0004286072216928005,
                    -6.65027109789662e-05,
                    8.287117816507816e-05,
                    0.0001921627263072878
                ],
                [
                    -0.0001840089535107836,
                    0.0001423595385858789,
                    -5.7730496337171644e-05,
                    -0.0006073134718462825,
                    -9.183363727061078e-05,
                    -0.0004289174103178084,
                    -3.921947063645348e-05,
                    9.304303966928273e-05,
                    0.0002495856606401503,
                    0.0003825852181762457,
                    -0.00011520237603690475,
                    0.0010202396661043167,
                    -0.0010669226758182049,
                    -0.0002713111462071538
                ],
                [
                    -0.00012292584870010614,
                    6.40237840343616e-06,
                    0.0007534931064583361,
                    0.0007492002914659679,
                    0.000984366750344634,
                    -2.6828971385839395e-05,
                    0.0005415720515884459,
                    0.0007476815371774137,
                    -0.0001396834704792127,
                    -2.522728573239874e-05,
                    -8.902732952265069e-05,
                    0.00022705821902491152,
                    -0.0001074509127647616,
                    8.408360008616e-05
                ],
                [
                    0.0002440211537759751,
                    0.00016292747750412673,
                    0.00041551035246811807,
                    -0.0004482998338062316,
                    0.00011307118984404951,
                    -0.00016018390306271613,
                    -0.0001917876215884462,
                    -0.00019662074919324368,
                    0.000267719296971336,
                    8.389990398427472e-05,
                    0.00023180789139587432,
                    -0.0002074893709504977,
                    0.00032207934418693185,
                    0.00016090611461549997
                ],
                [
                    0.0006883820169605315,
                    -4.487585829338059e-05,
                    -2.873279299819842e-05,
                    7.291881047422066e-05,
                    0.0002156559785362333,
                    7.436241139657795e-05,
                    0.0005146197509020567,
                    0.0004592589975800365,
                    -0.001325885416008532,
                    -0.0008074745419435203,
                    0.00026027392596006393,
                    -0.0002748904225882143,
                    -0.0002425686689093709,
                    8.246502693509683e-05
                ],
                [
                    -0.0004110205336473882,
                    -5.950732884230092e-05,
                    0.0007077938644215465,
                    9.052186214830726e-05,
                    3.5680815926752985e-05,
                    -0.0001261618745047599,
                    -1.7953439964912832e-05,
                    -0.00033983399043790996,
                    -9.351708285976201e-06,
                    -0.0007472272263839841,
                    -0.0005309542757458985,
                    -1.3350316294236109e-05,
                    4.076840923517011e-05,
                    0.0002349088026676327
                ],
                [
                    -0.000160931158461608,
                    -0.0007407222874462605,
                    0.0006318888626992702,
                    6.843284063506871e-05,
                    -0.000330232986016199,
                    -0.00010567567369434983,
                    -0.0005341304349713027,
                    -0.0006440521101467311,
                    -0.00011269412789260969,
                    0.00035302486503496766,
                    0.00014996560639701784,
                    -0.00020288249652367085,
                    -0.00016717734979465604,
                    5.2375038649188355e-05
                ],
                [
                    4.122800601180643e-05,
                    -0.00016675295773893595,
                    -4.258584158378653e-05,
                    0.00015094559057615697,
                    -0.00023425465042237192,
                    0.00021589375683106482,
                    -0.00047451735008507967,
                    4.674111187341623e-05,
                    -6.503783515654504e-05,
                    -0.00013089246931485832,
                    0.00037218103534542024,
                    -0.00016256999515462667,
                    0.00047359714517369866,
                    0.0007160845561884344
                ],
                [
                    -3.859843673126306e-06,
                    0.0004003627982456237,
                    -0.0005308571853674948,
                    0.00012398978287819773,
                    -7.08716906956397e-05,
                    -0.0002531586214900017,
                    0.00017997462418861687,
                    0.0001181754341814667,
                    -0.00022782283485867083,
                    0.0006704453844577074,
                    0.000397065858123824,
                    0.0002202285686507821,
                    -0.0005401166272349656,
                    -0.00040263941627927125
                ],
                [
                    -0.0002537796681281179,
                    -0.00010180118988500908,
                    -0.00021494529210031033,
                    -0.000688065541908145,
                    -0.00041714165126904845,
                    -0.00024426376330666244,
                    -0.000311546289594844,
                    0.0012027241755276918,
                    -0.0005551901995204389,
                    0.00040445587364956737,
                    8.383316890103742e-05,
                    -0.00040531030390411615,
                    0.0006070300587452948,
                    0.00011984796583419666
                ],
                [
                    0.0005262330523692071,
                    -0.00012841401621699333,
                    -0.000517354579642415,
                    -0.00014884024858474731,
                    7.742657180642709e-05,
                    1.3196003237680998e-05,
                    0.00013618166849482805,
                    0.00041956521454267204,
                    0.0006200800999067724,
                    0.0006872093072161078,
                    0.0001590708561707288,
                    0.00029959858511574566,
                    -0.0007482616929337382,
                    -0.00024047831539064646
                ],
                [
                    -0.00010596546053420752,
                    -4.2070030758623034e-05,
                    0.0009168849210254848,
                    0.0007814968121238053,
                    -2.6498082661419176e-05,
                    -0.0008215528796426952,
                    -0.0002346875553485006,
                    0.000305035529891029,
                    -6.332214252324775e-05,
                    0.00013060777564533055,
                    0.0006647164118476212,
                    -0.00010503002704354003,
                    0.0002235853607999161,
                    0.0002506885793991387
                ],
                [
                    0.00018293455650564283,
                    0.0002098149707308039,
                    -0.00018700369400903583,
                    -0.0002326391258975491,
                    -4.19387906731572e-05,
                    -0.00029625542811118066,
                    0.00011121098941657692,
                    0.000148735023685731,
                    4.2012561607407406e-05,
                    -0.0004329567600507289,
                    0.00010801944154081866,
                    -0.00048691502888686955,
                    -8.208472718251869e-05,
                    -3.764961365959607e-05
                ],
                [
                    6.459088035626337e-05,
                    0.0007863265345804393,
                    -5.7770525017986074e-05,
                    -0.0005472427001222968,
                    0.00017474534979555756,
                    -0.00017703892081044614,
                    -4.597324732458219e-05,
                    -5.679325568053173e-06,
                    0.00036226338124834,
                    2.454312561894767e-05,
                    0.0005869268206879497,
                    0.0002394487673882395,
                    0.0002815471088979393,
                    0.0006520330207422376
                ],
                [
                    -0.0001543088146718219,
                    -0.00017517348169349134,
                    0.00014444952830672264,
                    0.00021296403429005295,
                    -9.340111137134954e-05,
                    -0.0008065244765020907,
                    -0.00010229618055745959,
                    -0.00023751624394208193,
                    0.00030042853904888034,
                    -0.00048223225167021155,
                    9.35455464059487e-05,
                    0.0005988446646369994,
                    -0.0005235476419329643,
                    3.1633077014703304e-05
                ],
                [
                    -0.00028520042542368174,
                    0.00046768016181886196,
                    0.0002869117015507072,
                    -0.0006297923973761499,
                    0.00029191706562414765,
                    0.00016286576283164322,
                    -0.00020877363567706198,
                    5.596303890342824e-05,
                    0.00045046323793940246,
                    0.0004991973983123899,
                    0.0001269084750674665,
                    -0.0005379364010877907,
                    6.951898103579879e-05,
                    -5.041270560468547e-05
                ],
                [
                    -0.0003558519820217043,
                    2.125475111824926e-05,
                    0.00026754711871035397,
                    0.0006362860440276563,
                    5.428053918876685e-05,
                    -0.0009378642425872386,
                    -0.0001757940772222355,
                    0.0001467199035687372,
                    1.2578235327964649e-05,
                    0.0001839267206378281,
                    -8.85238332557492e-05,
                    0.0003735166974365711,
                    -0.00014312028361018747,
                    0.00036295870086178184
                ],
                [
                    -0.0004044613742735237,
                    0.0005039313691668212,
                    -0.0002507505414541811,
                    -0.00024266231048386544,
                    -9.157122258329764e-05,
                    -8.875819912645966e-05,
                    0.0001960353401955217,
                    -0.0002861466200556606,
                    0.00020853363093920052,
                    -0.0006302021211013198,
                    -7.89836049079895e-05,
                    0.00017227615171577781,
                    -0.0011840045917779207,
                    0.00011356343020452186
                ],
                [
                    0.0002509818004909903,
                    0.0003189370909240097,
                    6.233964541024761e-06,
                    0.0004416744050104171,
                    0.000748657388612628,
                    0.000655338924843818,
                    -0.00037349018384702504,
                    0.0010596904903650284,
                    0.0004585997958201915,
                    -0.00011663760960800573,
                    0.0002095272357109934,
                    -0.0005730495322495699,
                    -0.0003551170229911804,
                    0.00030383316334336996
                ],
                [
                    0.00017088805907405913,
                    0.00023572197824250907,
                    0.00020869832951575518,
                    -0.0004244126903358847,
                    2.3943723590491572e-06,
                    0.0005907898885197937,
                    -0.00034706961014308035,
                    -8.801116928225383e-05,
                    1.0743456186901312e-05,
                    0.00020599291019607335,
                    0.0002111916255671531,
                    0.0006359210819937289,
                    0.0005461996770463884,
                    0.0003624637029133737
                ],
                [
                    -0.0001663884031586349,
                    -0.0005108636687509716,
                    -6.272702012211084e-05,
                    -0.00025507615646347404,
                    -0.00011517280654516071,
                    0.0006213966407813132,
                    -0.0008729197434149683,
                    -4.9656668124953285e-05,
                    0.00017936251242645085,
                    0.0004693576192948967,
                    -0.0003313132910989225,
                    -0.0001737565326038748,
                    -0.0005102758295834064,
                    -0.0004906612448394299
                ],
                [
                    -0.00012697468628175557,
                    2.5322487999801524e-06,
                    -4.574269405566156e-05,
                    -0.0004245599848218262,
                    -0.0003657613997347653,
                    0.0004546417621895671,
                    0.0002571847289800644,
                    -6.0533024225151166e-05,
                    -0.0009993126150220633,
                    -0.00017851550364866853,
                    0.00048314130981452763,
                    -7.800562161719427e-05,
                    7.274998642969877e-05,
                    0.00015946055646054447
                ],
                [
                    -0.0005719055188819766,
                    -0.00046820053830742836,
                    0.0002687280939426273,
                    -0.0008760624332353473,
                    -0.0004638304526451975,
                    -0.0002792191517073661,
                    0.0005731279961764812,
                    0.0003242421371396631,
                    -0.00023466644051950425,
                    0.00048346188850700855,
                    0.0004067694244440645,
                    7.33605629648082e-05,
                    0.0005943629657849669,
                    0.0004602541739586741
                ],
                [
                    0.0005509664188139141,
                    -0.0001601494732312858,
                    -0.00020330946426838636,
                    -0.0005713310674764216,
                    -0.00013820617459714413,
                    -0.0004640031838789582,
                    -0.00025586545234546065,
                    6.229784048628062e-05,
                    -0.0004951214650645852,
                    -6.522102194139734e-05,
                    -0.0005728041869588196,
                    -9.561143087921664e-05,
                    0.00010083548841066658,
                    -0.0011140801943838596
                ],
                [
                    -0.0003723445115610957,
                    0.0003263882827013731,
                    0.0011618026765063405,
                    0.0003102598711848259,
                    0.00042445590952411294,
                    0.00047895419993437827,
                    0.0006333475466817617,
                    0.00010355308768339455,
                    -0.0007659584516659379,
                    -0.00012095900456188247,
                    -0.00012027815682813525,
                    0.0006901725428178906,
                    -0.0003931244136765599,
                    0.0006229841383174062
                ],
                [
                    0.00042903964640572667,
                    0.00010760911391116679,
                    0.0003261800156906247,
                    0.000498954439535737,
                    -0.00010334209946449846,
                    0.0003994230355601758,
                    0.00013660873810295016,
                    0.0005013552727177739,
                    4.394162169774063e-05,
                    0.00018437935796100646,
                    -3.5440716601442546e-05,
                    0.00041994816274382174,
                    -0.00016090656572487205,
                    0.00023366115055978298
                ],
                [
                    -0.0006191030843183398,
                    5.056869485997595e-05,
                    -0.00047797724255360663,
                    -0.0005032839253544807,
                    0.0002352974406676367,
                    -0.00018248168635182083,
                    -7.967730925884098e-05,
                    -0.000548910757061094,
                    -0.0005162309389561415,
                    -0.00021311042655725032,
                    0.0006776528898626566,
                    -0.000731884385459125,
                    -0.0007903332589194179,
                    -0.0004123387625440955
                ],
                [
                    -0.00029519430245272815,
                    0.00015280928346328437,
                    0.0005501629784703255,
                    -0.0005911494954489172,
                    0.0010858873138204217,
                    -0.00028072608984075487,
                    0.00010283448500558734,
                    -0.0006482343305833638,
                    0.0003256898489780724,
                    0.0001578440424054861,
                    -0.0002229503297712654,
                    -0.00012254981265868992,
                    4.515773252933286e-05,
                    1.5366115349024767e-06
                ],
                [
                    -0.0002513611689209938,
                    -5.86132773605641e-05,
                    0.0006073243566788733,
                    -0.00013637552910950035,
                    -0.00010039023618446663,
                    -5.4109412303660065e-05,
                    -4.8666730435797945e-05,
                    0.0002731490239966661,
                    0.00048199595767073333,
                    -0.00034706087899394333,
                    0.0003687061835080385,
                    -0.0004290351935196668,
                    0.0008463442209176719,
                    0.001014862209558487
                ],
                [
                    -0.00011248669034102932,
                    9.779952961253002e-05,
                    -0.0005521054845303297,
                    0.0002470840699970722,
                    -0.00048045130097307265,
                    0.000424370780820027,
                    -0.0005298276664689183,
                    -0.00046069789095781744,
                    -0.0001923009258462116,
                    -0.00010397723963251337,
                    7.657431706320494e-05,
                    -7.028505206108093e-05,
                    -0.0008148530614562333,
                    -3.57910648745019e-05
                ],
                [
                    0.00022789437207393348,
                    0.00011865817214129493,
                    0.0005137564730830491,
                    -0.00042684905929490924,
                    -0.0004950424772687256,
                    -7.403506606351584e-05,
                    -0.000530470279045403,
                    -0.00011007526336470619,
                    0.00024151902471203357,
                    0.0005544315208680928,
                    0.00022303721925709397,
                    -0.0003745233407244086,
                    -0.0004896828322671354,
                    -0.0003910567320417613
                ],
                [
                    0.0004920532228425145,
                    -0.0006441728910431266,
                    4.508499841904268e-05,
                    -2.331128780497238e-05,
                    9.49866880546324e-05,
                    0.00016693402722012252,
                    -0.0002073250216199085,
                    0.00013198063243180513,
                    -0.0003860203723888844,
                    -0.00023075756325852126,
                    0.00018513272516429424,
                    0.0002975687966682017,
                    0.0005784825189039111,
                    0.0003968270611949265
                ],
                [
                    0.00078772526467219,
                    0.00022584717953577638,
                    0.00024341609969269484,
                    1.2553785381896887e-05,
                    0.0001858206233009696,
                    -0.00018690127762965858,
                    0.00029050212469883263,
                    0.0006772091728635132,
                    -6.532496627187356e-05,
                    -0.0004571558383759111,
                    9.257207238988485e-06,
                    -0.000637004675809294,
                    2.0045779820065945e-05,
                    0.00042983159073628485
                ],
                [
                    2.641231367306318e-05,
                    -0.000505067699123174,
                    -0.000267477473244071,
                    0.0005628328653983772,
                    0.0003233644238207489,
                    7.530036964453757e-05,
                    7.027296669548377e-05,
                    0.0003024101606570184,
                    -2.0093068087589927e-05,
                    -9.984250937122852e-05,
                    0.00014006362471263856,
                    -0.0006142825586721301,
                    -0.00035504644620232284,
                    -2.6952464395435527e-05
                ],
                [
                    0.00030614089337177575,
                    0.0006179633783176541,
                    -1.9582595996325836e-05,
                    8.898318628780544e-05,
                    -0.0005973931401968002,
                    -0.0003251579182688147,
                    0.00033580869785510004,
                    -0.00017689989181235433,
                    0.0002498083340469748,
                    -0.00018945761257782578,
                    0.000523555267136544,
                    0.0003258921788074076,
                    0.0004375589778646827,
                    0.000696362869348377
                ],
                [
                    -0.00013834130368195474,
                    -3.982859198004007e-06,
                    -0.00012860720744356513,
                    -0.0001891251449706033,
                    0.0002626742352731526,
                    0.0005051348707638681,
                    -0.0005961752613075078,
                    -3.904873301507905e-05,
                    -4.978226570528932e-05,
                    -0.000512078229803592,
                    3.174891389789991e-06,
                    -0.00032779868342913687,
                    -0.0007424924406222999,
                    0.0003904395562130958
                ],
                [
                    -2.039943683485035e-05,
                    -0.00035902642412111163,
                    9.68059612205252e-05,
                    -0.0001876634923974052,
                    0.00024736998602747917,
                    -0.000401587545638904,
                    0.00010057311010314152,
                    0.0005741447675973177,
                    0.0002727866522036493,
                    -1.349069134448655e-05,
                    -0.00015189028636086732,
                    -0.00012113557022530586,
                    0.0001157160077127628,
                    -0.0009160852641798556
                ],
                [
                    0.00017828222189564258,
                    0.00024245856911875308,
                    -5.256279109744355e-05,
                    0.00018460045976098627,
                    3.654455213109031e-05,
                    -3.915462730219588e-05,
                    -0.0002977570111397654,
                    0.000531890313141048,
                    -0.0003149591211695224,
                    -0.00011487524898257107,
                    -1.3322558515937999e-05,
                    -0.00019970099674537778,
                    -0.0001173627533717081,
                    0.0007015758310444653
                ],
                [
                    3.099877721979283e-05,
                    0.00045102660078555346,
                    0.00026246753986924887,
                    0.00029123417334631085,
                    -0.0005664236377924681,
                    0.00028951693093404174,
                    0.0002278230822412297,
                    -0.00023109297035261989,
                    0.00023913304903544486,
                    -0.000520872010383755,
                    -0.00045356035116128623,
                    -0.0001503724342910573,
                    8.528033504262567e-05,
                    0.00027822464471682906
                ],
                [
                    0.0005673971609212458,
                    -0.00040550503763370216,
                    3.433107849559747e-05,
                    -0.0005821847007609904,
                    -0.00019919838814530522,
                    0.00022318259289022535,
                    0.0005578034906648099,
                    -0.0003669468860607594,
                    -0.0003713188925758004,
                    0.0006955544813536108,
                    -0.0002756216563284397,
                    0.0005322823417373002,
                    -0.0001804791099857539,
                    -0.00028779098647646606
                ],
                [
                    -0.00013344317267183214,
                    0.00015660950157325715,
                    0.0005347650730982423,
                    -0.00019547852571122348,
                    0.00012787406740244478,
                    -0.00028978497721254826,
                    -0.0006020854343660176,
                    -0.00040773808723315597,
                    0.000848292896989733,
                    -9.43644845392555e-05,
                    -9.82782948995009e-05,
                    0.00019274676742497832,
                    -0.00016688469622749835,
                    8.53670499054715e-05
                ],
                [
                    0.0003259798395447433,
                    -0.0003184776287525892,
                    -0.0005317363538779318,
                    -0.00037438451545313,
                    0.00019922446517739445,
                    -0.0006063050241209567,
                    -0.0006063376786187291,
                    -0.0006210370338521898,
                    -0.000138065341161564,
                    0.00022579274082090706,
                    0.0004864596703555435,
                    0.00039744481910020113,
                    1.1507618182804435e-05,
                    -0.0006694034673273563
                ],
                [
                    0.0003726732393261045,
                    0.00033963104942813516,
                    5.664885975420475e-05,
                    0.0007046772516332567,
                    0.0005640281015075743,
                    -4.9143862270284444e-05,
                    -0.00038787067751400173,
                    6.975208088988438e-05,
                    0.0002722976787481457,
                    0.00020552120986394584,
                    0.00010992818715749308,
                    0.00048053901991806924,
                    -0.0002215801359852776,
                    -0.00023414334282279015
                ],
                [
                    0.00026302243350073695,
                    -0.00020582973957061768,
                    0.0002580735017545521,
                    -0.0005703487549908459,
                    0.00016159118968062103,
                    0.00013455600128509104,
                    0.000263749563600868,
                    -0.001169758616015315,
                    -0.00010464280057931319,
                    6.899156142026186e-05,
                    -8.16763931652531e-05,
                    -0.00040243827970698476,
                    0.00018561513570602983,
                    0.0001681625290075317
                ],
                [
                    -0.00032234794343821704,
                    0.0004891091375611722,
                    -0.0003181422653142363,
                    -0.0005318026524037123,
                    0.00015558849554508924,
                    -4.353332406026311e-05,
                    -0.00029333747806958854,
                    0.00041800137842074037,
                    -0.0003350995830260217,
                    -0.00017245521303266287,
                    -0.000341562059475109,
                    0.00045526016037911177,
                    0.00030245064408518374,
                    -0.00016153159958776087
                ],
                [
                    -0.0008021070971153677,
                    0.0005429642624221742,
                    0.00039874252979643643,
                    0.0008795935427770019,
                    -0.00018405314767733216,
                    -0.00022902354248799384,
                    -0.0006504846969619393,
                    -0.00030950430664233863,
                    0.0005616846610791981,
                    -0.00014223706966731697,
                    -0.00017773822764866054,
                    -0.0004060436913277954,
                    -8.299540786538273e-05,
                    0.0009933995315805078
                ],
                [
                    0.0001747296191751957,
                    0.0008404148393310606,
                    -0.00045268668327480555,
                    0.00035217776894569397,
                    0.0005086060846224427,
                    1.142251585406484e-05,
                    -7.772311073495075e-05,
                    -0.0004258654953446239,
                    0.00011098165123257786,
                    -7.947940321173519e-05,
                    -0.0006647086120210588,
                    -0.0002530050987843424,
                    -0.0006668983842246234,
                    0.0003467250207904726
                ],
                [
                    0.0003727408475242555,
                    -0.00017716604634188116,
                    -0.00022644049022346735,
                    -0.000452320440672338,
                    -0.0003974643477704376,
                    0.0003656199260149151,
                    0.0006580247427336872,
                    -0.0002903286658693105,
                    0.00028828144422732294,
                    -0.00010626546281855553,
                    0.00020846656116191298,
                    -6.282250978983939e-06,
                    0.0003128696116618812,
                    0.00012690511357504874
                ],
                [
                    0.0001360988535452634,
                    -0.0001912728330353275,
                    0.000368962821085006,
                    0.0003886933845933527,
                    0.0005073089268989861,
                    -0.0003047466743737459,
                    -0.0002542102592997253,
                    0.0002181954332627356,
                    0.0002394394832663238,
                    0.00023426891129929572,
                    -0.0001364484487567097,
                    0.0003858274139929563,
                    -0.0004135088820476085,
                    0.00034568406408652663
                ],
                [
                    -2.2019010430085473e-05,
                    0.00030005114967934787,
                    0.0005915591027587652,
                    0.00010447866952745244,
                    -0.0003306306025478989,
                    -0.0006574128638021648,
                    9.894033428281546e-05,
                    0.0005920053808949888,
                    0.00013297783152665943,
                    -0.0003770190814975649,
                    0.0002462828124407679,
                    0.0002504735311958939,
                    -0.0001611730403965339,
                    -0.0002637911820784211
                ],
                [
                    -0.0002910878974944353,
                    0.0003315966750960797,
                    -0.0006736029754392803,
                    -0.00018640077905729413,
                    0.00015385713777504861,
                    -0.00011293399438727647,
                    0.0003923174808733165,
                    -0.00026665974291972816,
                    -8.747416723053902e-05,
                    9.100876923184842e-05,
                    -0.00013709341874346137,
                    6.200741336215287e-05,
                    0.00028653250774368644,
                    0.00011719656322384253
                ],
                [
                    0.00022425422503147274,
                    -0.0002083033905364573,
                    0.00033031791099347174,
                    -0.0005358456983231008,
                    -0.00027519368450157344,
                    0.0001059807327692397,
                    -0.00017108899191953242,
                    0.00010792652028612792,
                    0.00022110843565315008,
                    0.0002973461232613772,
                    -0.0005752776050940156,
                    -0.00026946404250338674,
                    0.0001965599658433348,
                    -0.0001786326029105112
                ],
                [
                    0.0002891134936362505,
                    0.00018915711552836,
                    0.00033532865927554667,
                    -0.00036609734524972737,
                    0.00038686394691467285,
                    -0.0007755900733172894,
                    -0.0010148666333407164,
                    -0.0004110685258638114,
                    0.00025146559346467257,
                    0.0005766131798736751,
                    0.0006172712310217321,
                    -8.252652332885191e-05,
                    -0.000398381584091112,
                    -0.0001904533855849877
                ],
                [
                    -2.036792466242332e-05,
                    -0.00012162110215285793,
                    -1.3291055438457988e-06,
                    -0.0002957336837425828,
                    -1.5769272067700513e-05,
                    4.1195613448508084e-05,
                    0.00043605040991678834,
                    0.0005313981673680246,
                    -0.00023252445680554956,
                    0.0006551331025548279,
                    -0.0003204515378456563,
                    -0.00028096872847527266,
                    7.165162969613448e-05,
                    -0.0006546829245053232
                ],
                [
                    -0.00042322211083956063,
                    9.248103742720559e-05,
                    -0.0005125800962559879,
                    -0.00022021839686203748,
                    0.00014539191033691168,
                    3.092024417128414e-05,
                    0.00015158408496063203,
                    0.00027113789110444486,
                    0.0003248507564421743,
                    2.6852090741158463e-05,
                    0.0006312176701612771,
                    0.0001991372846532613,
                    -0.0004970922018401325,
                    -0.00022484503278974444
                ],
                [
                    -0.0004335271951276809,
                    0.0002255310391774401,
                    -1.6218828022829257e-05,
                    -0.00014113335055299103,
                    0.0004486083926167339,
                    -0.0004255225358065218,
                    0.00034710956970229745,
                    -0.0006362248677760363,
                    0.00021959740843158215,
                    0.00039243779610842466,
                    0.00017561553977429867,
                    -9.926248458214104e-05,
                    0.0003810998168773949,
                    -0.00026456612977199256
                ],
                [
                    0.0005204204353503883,
                    0.00043808473856188357,
                    0.00010039930930361152,
                    -0.00043090738472528756,
                    -0.00012129420065321028,
                    0.00016283577133435756,
                    -0.00013513620069716126,
                    -0.00018305148114450276,
                    0.0004073580785188824,
                    0.00032096687937155366,
                    0.00035407525137998164,
                    -4.948159767081961e-05,
                    0.0005043165292590857,
                    0.0006282685790210962
                ],
                [
                    0.00012516517017502338,
                    0.00038319051964208484,
                    -0.0010930323041975498,
                    -0.0002666496438905597,
                    -0.00034523732028901577,
                    -0.00020603065786417574,
                    0.00039087148616090417,
                    -0.0003805009473580867,
                    0.00019575355690903962,
                    7.842991180950776e-05,
                    -0.00013824172492604703,
                    0.0006516993744298816,
                    -0.00042537288391031325,
                    9.420085552847013e-05
                ],
                [
                    0.0004002753703389317,
                    -0.00037759641418233514,
                    0.00062539242208004,
                    0.00016546125698368996,
                    0.00028601987287402153,
                    -0.00020234718977008015,
                    0.0006205490208230913,
                    0.0002516817476134747,
                    0.0003358176618348807,
                    -0.00018007746257353574,
                    1.590601277712267e-05,
                    0.00034104130463674664,
                    -0.0003104904608335346,
                    0.0001281601144000888
                ],
                [
                    0.00046699668746441603,
                    -0.00021690328139811754,
                    -0.00027782769757322967,
                    0.0001323544856859371,
                    0.00019303671433590353,
                    0.0001732266100589186,
                    -0.00017137257964350283,
                    -0.00047438370529562235,
                    -0.00017073244089260697,
                    -0.00011301597987767309,
                    0.00026744723436422646,
                    -0.000165351593750529,
                    4.3493666453287005e-05,
                    0.00034826129558496177
                ],
                [
                    0.0005825904081575572,
                    -0.000662270758766681,
                    0.0007640717085450888,
                    -0.0007456383318640292,
                    -0.00012265976693015546,
                    0.00022084370721131563,
                    0.0004760072915814817,
                    0.00018872940563596785,
                    0.0007594640483148396,
                    -0.000142050048452802,
                    0.0003546701918821782,
                    -5.474091449286789e-05,
                    0.00023160593991633505,
                    0.00011836615885840729
                ],
                [
                    -0.00024700677022337914,
                    -0.000376356125343591,
                    0.00011826140689663589,
                    -3.258480137446895e-05,
                    0.00012201392382849008,
                    -0.00038161204429343343,
                    -0.00017628537898417562,
                    0.0002843925612978637,
                    -0.00022635344066657126,
                    -0.0005152171361260116,
                    2.647358451213222e-05,
                    0.00048449088353663683,
                    0.0003950043465010822,
                    0.00021824815485160798
                ],
                [
                    0.0009010046487674117,
                    7.623405690537766e-05,
                    0.00011329133121762425,
                    -0.0005819413345307112,
                    3.146617746097036e-05,
                    0.0002223797346232459,
                    -0.0001678770495345816,
                    -3.766810186789371e-05,
                    -0.00011431856546550989,
                    9.6406030934304e-05,
                    -0.00013701070565730333,
                    -6.895196565892547e-05,
                    -0.00027635719743557274,
                    0.00014158051635604352
                ],
                [
                    0.00038670343928970397,
                    -0.0006231744191609323,
                    -9.854996460489929e-05,
                    -5.535028321901336e-06,
                    0.00034802244044840336,
                    -2.971949584207323e-07,
                    8.650576637592167e-05,
                    0.0001319748116657138,
                    -0.00019081062055192888,
                    -0.0005606590420939028,
                    0.00016484412481077015,
                    0.00023754446010570973,
                    -0.000439757714048028,
                    -0.00037081303889863193
                ],
                [
                    0.00010185319843003526,
                    0.00032417167676612735,
                    -0.00026989521575160325,
                    0.0005022825789637864,
                    0.0005453989142552018,
                    0.0005752866854891181,
                    -0.0003083433548454195,
                    0.0002555611717980355,
                    0.0005961466813459992,
                    0.0007577805081382394,
                    -0.0005794978351332247,
                    0.00027734480681829154,
                    -0.0004435840528458357,
                    0.0004364352789707482
                ],
                [
                    -0.00034987396793439984,
                    -0.00044136284850537777,
                    -0.00033326479024253786,
                    -0.0003332287597004324,
                    0.0004152737383265048,
                    -0.0003885935293510556,
                    0.00033582039759494364,
                    -0.0006146745872683823,
                    -0.00027302949456498027,
                    0.0001304342004004866,
                    -0.00039775820914655924,
                    0.0002207116485806182,
                    0.00021768127044197172,
                    8.049447205848992e-05
                ],
                [
                    -9.703900286694989e-05,
                    0.00031700392719358206,
                    7.280584395630285e-05,
                    0.0002868412702810019,
                    0.00012122246698709205,
                    0.0006826019380241632,
                    0.0002875954087357968,
                    0.0004783852491527796,
                    0.00017426667909603566,
                    0.0005954007501713932,
                    8.403570245718583e-05,
                    0.0005485913134180009,
                    0.0008290765690617263,
                    0.00014782232756260782
                ],
                [
                    -0.00039933895459398627,
                    0.000557515537366271,
                    0.00035759960883297026,
                    0.00025268978788517416,
                    0.0004143107507843524,
                    0.0002655101125128567,
                    0.0006215963512659073,
                    -0.00036413606721907854,
                    -0.0009400917333550751,
                    -0.00026695316773839295,
                    0.00046010868391022086,
                    -0.00030685868114233017,
                    -0.00043318798998370767,
                    -7.328418723773211e-05
                ],
                [
                    -4.654271833715029e-05,
                    -0.00011573082156246528,
                    0.00034066097578033805,
                    -0.00017482230032328516,
                    0.0005555872339755297,
                    0.00015053673996590078,
                    0.000527499767486006,
                    0.0004116414347663522,
                    0.00032709402148611844,
                    -0.00011249359522480518,
                    0.00019722450815606862,
                    0.00018211390124633908,
                    -0.0002458194794598967,
                    -0.0001811677502701059
                ],
                [
                    0.0003052286629099399,
                    6.808136822655797e-05,
                    -0.00016170302114915103,
                    -0.00021952189854346216,
                    0.000388359185308218,
                    -0.0005955586675554514,
                    -1.59346018335782e-05,
                    0.00011739726323867217,
                    0.00014777018805034459,
                    -0.0006986280204728246,
                    -0.00021044877939857543,
                    -0.0005825917469337583,
                    0.00020907039288431406,
                    3.729759919224307e-05
                ],
                [
                    0.00022943629301153123,
                    -0.00037744006840512156,
                    0.0004908749833703041,
                    -0.00029993525822646916,
                    -7.530255243182182e-05,
                    3.4708740713540465e-05,
                    -0.0001675277017056942,
                    -4.8720230552135035e-05,
                    1.9269682525191456e-05,
                    1.532062015030533e-05,
                    -0.00012623141810763627,
                    0.00013639210374094546,
                    -0.00013719739217776805,
                    -0.0003540416364558041
                ],
                [
                    -2.640540878928732e-05,
                    -4.333373726694845e-05,
                    7.422149792546406e-05,
                    0.0006561116315424442,
                    0.00020802354265470058,
                    0.0001791204558685422,
                    -7.099115464370698e-05,
                    0.0010128449648618698,
                    0.00017472452600486577,
                    -0.0006128373788669705,
                    4.677114338846877e-05,
                    0.0007898855837993324,
                    0.0002445878926664591,
                    0.0002566649636719376
                ],
                [
                    -2.270486220368184e-05,
                    -0.00032247710623778403,
                    -0.00028982909861952066,
                    0.0002169571816921234,
                    0.00015840183186810464,
                    0.00017876617494039237,
                    -0.0004378744924906641,
                    0.0007965987897478044,
                    -0.00016839792078826576,
                    0.0004623309650924057,
                    0.0005395024199970067,
                    -0.00010067601397167891,
                    0.00015428186452481896,
                    -0.0007860683836042881
                ],
                [
                    -0.00034220071393065155,
                    0.0005383699317462742,
                    0.00020829982531722635,
                    0.00031825393671169877,
                    -0.00031869811937212944,
                    0.0001948338031070307,
                    -0.00014788057887926698,
                    0.0001872258580988273,
                    2.226384822279215e-05,
                    0.0005364008829928935,
                    -8.452788460999727e-05,
                    0.00021540874149650335,
                    0.00029880821239203215,
                    9.781863627722487e-05
                ],
                [
                    0.00019288496696390212,
                    6.218152066139737e-06,
                    -0.0009690301958471537,
                    4.841609188588336e-05,
                    0.000237639804254286,
                    9.295932977693155e-05,
                    0.00048021809197962284,
                    -0.00044977650395594537,
                    5.223158950684592e-05,
                    -0.00029790375265292823,
                    -3.8282851164694875e-05,
                    -0.00030030871857888997,
                    0.0004829252138733864,
                    -5.411138408817351e-05
                ],
                [
                    0.0009025312028825283,
                    0.0003099757886957377,
                    -9.645498357713223e-05,
                    0.00018182532221544534,
                    0.000622855091933161,
                    -0.0008536567911505699,
                    0.0003476292476989329,
                    -0.00013287007459439337,
                    0.0005004373379051685,
                    0.0006393391522578895,
                    -0.00026389872073195875,
                    -0.0002674760471563786,
                    -8.544908632757142e-05,
                    -0.00024672161089256406
                ],
                [
                    6.564245268236846e-05,
                    8.943580905906856e-05,
                    -0.00025647933944128454,
                    -0.00047885399544611573,
                    -1.5016225916042458e-06,
                    0.00027127607609145343,
                    0.00011286619701422751,
                    0.00036407148581929505,
                    -0.00041709464858286083,
                    -0.0005176139529794455,
                    -0.0003686634008772671,
                    -0.00045662251068279147,
                    -0.00032939648372121155,
                    -0.0002417962532490492
                ]
            ]
        },
        {
            "activation": 1,
            "biases": [
                1.5940931064051256e-07,
                -7.623034292691955e-08,
                5.167189556232188e-07,
                -2.1067132820462575e-06,
                0.0,
                1.3558076261688257e-07,
                0.0,
                0.0,
                -1.9755020730372053e-07,
                -4.157727744313888e-07,
                2.0007751118100714e-06,
                -3.1382785437017446e-07,
                -2.999324166808037e-08,
                -4.651385836496047e-07,
                8.402150797337526e-08,
                -7.435500606334244e-07,
                0.0,
                0.0,
                -2.460513087498839e-06,
                1.492273895564722e-07,
                -9.175067816613591e-07,
                0.0,
                2.4398433495775862e-08,
                -4.368648376384954e-08,
                9.207184916704136e-07,
                -8.940631914811092e-07,
                0.0,
                0.0,
                -1.0474956013695191e-07,
                -8.543937042304606e-07,
                0.0,
                -1.0641993242188619e-07,
                0.0,
                3.510059514155728e-07,
                -1.3712046609271056e-07,
                -8.22772165065544e-07,
                -2.6329266233915405e-07,
                3.409965998457665e-08,
                7.419916414619365e-07,
                0.0,
                -2.989876435322003e-08,
                -3.449356427154271e-06,
                -6.061035833226924e-07,
                0.0,
                -7.644771216064328e-08,
                -2.612926834899554e-07,
                -1.2645402591715538e-07,
                7.598986258017248e-07,
                1.4633253897500254e-07,
                6.840930382168153e-07,
                -5.058209353592247e-07,
                9.927866813086439e-07,
                0.0,
                -5.3800963684125236e-08,
                1.7917139985001995e-06,
                0.0,
                -2.637748650613503e-07,
                2.3987598751773476e-07,
                6.548478950207937e-07,
                5.681146717506635e-07,
                8.46523221298412e-07,
                -2.167971899780241e-07,
                0.0,
                2.5131157599389553e-07
            ],
            "inputSize": 128,
            "outputSize": 64,
            "weights": [
                [
                    -2.3951952243805863e-05,
                    -3.259978984715417e-05,
                    -0.0002117561671184376,
                    -0.00018358380475547165,
                    0.00017911901522893459,
                    -9.242031228495762e-05,
                    6.715899507980794e-05,
                    6.775745714548975e-05,
                    4.132579852011986e-05,
                    -0.0001628878671908751,
                    6.792315980419517e-05,
                    -6.327981827780604e-05,
                    7.07223080098629e-06,
                    0.00013164010306354612,
                    -0.00012539549788925797,
                    -0.00012872695515397936,
                    -7.251514034578577e-05,
                    -0.00011918784002773464,
                    -0.00011166033073095605,
                    0.00023052313190419227,
                    -0.00012475471885409206,
                    -7.692144572502002e-05,
                    -3.4776152460835874e-05,
                    -7.169827586039901e-05,
                    0.00012705197150353342,
                    -8.053983765421435e-05,
                    0.00017446452693548054,
                    5.17159714945592e-05,
                    -0.00013516840408556163,
                    8.316974344779737e-06,
                    -0.0001917918852996081,
                    -5.2497802244033664e-05,
                    7.064815872581676e-05,
                    -8.848877769196406e-05,
                    -4.62563730252441e-05,
                    -0.00010023290087701753,
                    -0.00023577276442665607,
                    0.00011838567297672853,
                    -0.0001267217448912561,
                    -7.430789264617488e-05,
                    2.4438724722131155e-05,
                    -0.00012290675658732653,
                    6.190500425873324e-05,
                    -6.584748189197853e-05,
                    -0.00015229044947773218,
                    0.0002724075166042894,
                    6.0936305089853704e-05,
                    4.532187813310884e-05,
                    2.2589657078242453e-07,
                    -7.254322554217651e-05,
                    0.00017397984629496932,
                    8.389681170228869e-05,
                    -4.997345240553841e-05,
                    -0.00010570321319391951,
                    8.209053339669481e-05,
                    0.00025612727040424943,
                    4.144104605074972e-05,
                    7.335925329243764e-05,
                    -4.177662049187347e-05,
                    -3.120223118457943e-05,
                    -4.277721745893359e-05,
                    -4.727407213067636e-05,
                    6.012570520397276e-05,
                    0.00017082475824281573,
                    -0.0002118349220836535,
                    0.00011959463881794363,
                    3.036910311493557e-05,
                    -4.730932050733827e-05,
                    3.882731471094303e-05,
                    0.00030309282010421157,
                    0.0004071929433848709,
                    0.00010057215695269406,
                    -8.24041198939085e-05,
                    -3.7151625292608514e-05,
                    -8.439864905085415e-05,
                    0.0002049107279162854,
                    2.7041067369282246e-05,
                    0.00012844004959333688,
                    -0.00016603051335550845,
                    0.00015658904158044606,
                    -4.607481969287619e-06,
                    -0.00017521721019875258,
                    3.445917900535278e-05,
                    0.00015930661174934357,
                    8.100466948235407e-05,
                    0.00032438142807222903,
                    9.751744983077515e-06,
                    0.0002494720392860472,
                    0.0001719126448733732,
                    -3.1789837521500885e-05,
                    -4.8697063903091475e-05,
                    -2.4548176952521317e-05,
                    8.52966622915119e-05,
                    0.00011006796557921916,
                    9.587660315446556e-05,
                    0.00016709980263840407,
                    -4.630204784916714e-05,
                    6.61220183246769e-05,
                    1.581965625518933e-05,
                    1.0975481018249411e-05,
                    3.6393230402609333e-05,
                    -7.677623943891376e-05,
                    -2.3524436983279884e-05,
                    9.026190673466772e-05,
                    -6.503031909232959e-05,
                    -0.00014149409253150225,
                    0.00012353519559837878,
                    2.247636984975543e-05,
                    8.923398127080873e-07,
                    -0.00020883686374872923,
                    -0.00012182723003206775,
                    -1.9403427359065972e-05,
                    -0.000108157611975912,
                    -0.00017911095346789807,
                    0.00010987983114318922,
                    -3.447660856181756e-05,
                    0.0002726924140006304,
                    -0.0001362600305583328,
                    -3.966565782320686e-05,
                    4.96345674037002e-05,
                    -3.954614294343628e-05,
                    2.6937259463011287e-05,
                    1.6404379493906163e-05,
                    -6.52260278002359e-05,
                    -0.00023316830629482865,
                    -0.000302823114907369,
                    -7.89878595242044e-06,
                    -5.6477816542610526e-05
                ],
                [
                    -0.00014178639685269445,
                    5.543903898796998e-05,
                    1.0624316928442568e-05,
                    -0.00011909339082194492,
                    -0.00016097506158985198,
                    -1.5463463569176383e-05,
                    -2.7579029847402126e-05,
                    -2.0905616111122072e-05,
                    -2.026079164352268e-05,
                    -8.383268868783489e-05,
                    5.5747681471984833e-05,
                    -5.734017395297997e-05,
                    7.111167360562831e-05,
                    -0.00011759992048610002,
                    0.00015748050645925105,
                    0.00010918658517766744,
                    -1.0120148544956464e-05,
                    3.436639599385671e-05,
                    8.139647979987785e-05,
                    0.00011359310883563012,
                    -0.00017074929201044142,
                    9.390042396262288e-05,
                    7.5567040767055e-05,
                    0.00013256474630907178,
                    -2.6585876184981316e-05,
                    0.0001269894273718819,
                    3.6164792618365027e-06,
                    -0.0001904685195768252,
                    -0.00010885718074860051,
                    -3.2957192161120474e-05,
                    7.518940401496366e-05,
                    -8.334696758538485e-05,
                    -5.37940422873362e-06,
                    -0.00010427086090203375,
                    -0.00012850959319621325,
                    -0.00010043314978247508,
                    7.149932935135439e-05,
                    -0.00010232615750283003,
                    8.883048576535657e-05,
                    0.00010799778101500124,
                    -7.175425707828254e-05,
                    0.00018321533570997417,
                    3.060697781620547e-05,
                    7.76996894273907e-05,
                    -0.0003195467870682478,
                    -5.984194649499841e-05,
                    4.49143908554106e-06,
                    -5.250261892797425e-06,
                    -0.00010491808643564582,
                    9.077860158868134e-05,
                    0.00019554987375158817,
                    -0.00015762406110297889,
                    7.718364031461533e-06,
                    5.344042438082397e-05,
                    0.00011417449422879145,
                    0.0001491271541453898,
                    -0.00026237883139401674,
                    -0.00015902399900369346,
                    -7.161146641010419e-05,
                    4.986327257938683e-05,
                    -3.894517067237757e-05,
                    -8.533398795407265e-05,
                    -8.305148367071524e-05,
                    0.00013963115634396672,
                    5.459436579258181e-06,
                    0.00011892376642208546,
                    -3.688934157253243e-05,
                    0.00012673920718953013,
                    -3.6840476241195574e-05,
                    6.41338192508556e-05,
                    0.00011154223466292024,
                    0.0001559360680403188,
                    4.460831769392826e-05,
                    0.00021627004025503993,
                    -7.553722389275208e-05,
                    -8.700876060174778e-05,
                    0.00017295552243012935,
                    -8.402112871408463e-05,
                    -0.00012942307512275875,
                    -1.0307809134246781e-05,
                    6.308707088464871e-05,
                    6.136174488347024e-05,
                    -0.00013068797125015408,
                    7.573141920147464e-05,
                    8.28289266792126e-05,
                    0.00019918967154808342,
