{
    "layers": [
        {
            "activation": 2,
            "biases": [
                0.0023232977837324142,
                -0.039617400616407394,
                0.0036080703139305115,
                0.008483516983687878,
                -0.06795769184827805,
                0.007417725864797831,
                -0.055941324681043625,
                -0.001913403975777328,
                -0.044446926563978195,
                -0.011516048572957516,
                0.02655188925564289,
                0.05568618327379227,
                -0.018570542335510254,
                -0.004122008569538593,
                -0.0018205840606242418,
                -0.009748751297593117,
                -0.008601492270827293,
                -0.024291839450597763,
                0.09839800000190735,
                -0.002987541723996401,
                -0.012159999459981918,
                0.027859587222337723,
                -0.035423122346401215,
                0.046506401151418686,
                -0.02883104421198368,
                -0.022124789655208588,
                0.0025561866350471973,
                -0.0023127193562686443,
                0.003751213662326336,
                -0.02341480553150177,
                0.023627879098057747,
                -0.018336033448576927,
                -0.0052371700294315815,
                0.11723427474498749,
                -0.013683348894119263,
                0.040209151804447174,
                0.05034598708152771,
                5.2735044846485835e-06,
                0.014544801786541939,
                -0.0015540883177891374,
                -0.004225427284836769,
                -0.015534031204879284,
                -0.0009811634663492441,
                -0.0042562177404761314,
                -0.027007514610886574,
                -0.0343790203332901,
                -0.018211157992482185,
                0.014912759885191917,
                -0.002556141233071685,
                -0.025381695479154587,
                -0.030871106311678886,
                -0.014456936158239841,
                -0.04877743497490883,
                -0.016598939895629883,
                -0.012946048751473427,
                -0.07705739885568619,
                0.11720158159732819,
                -0.016169119626283646,
                -0.005018266383558512,
                0.017773976549506187,
                0.04442131891846657,
                -0.006056736223399639,
                0.062360137701034546,
                0.01916930265724659
            ],
            "inputSize": 14,
            "outputSize": 64,
            "weights": [
                [
                    -1.0068920850753784,
                    -0.8630768656730652,
                    0.1048816442489624,
                    -0.2576616704463959,
                    -0.33189526200294495,
                    -0.1426248848438263,
                    -0.5406939387321472,
                    0.1714150309562683,
                    -1.155825138092041,
                    -0.20431046187877655,
                    -0.5624368786811829,
                    -0.2341623455286026,
                    0.13646605610847473,
                    0.18957915902137756
                ],
                [
                    -5.594492435455322,
                    -9.319293975830078,
                    1.9180737733840942,
                    0.06883090734481812,
                    0.3726697266101837,
                    -1.0141551494598389,
                    1.647783875465393,
                    1.1376444101333618,
                    -5.734806060791016,
                    -2.963610887527466,
                    0.8271074295043945,
                    1.4088757038116455,
                    0.12372662872076035,
                    0.26180240511894226
                ],
                [
                    -1.2260891199111938,
                    -0.6531829237937927,
                    -0.46882572770118713,
                    0.22309115529060364,
                    0.23922854661941528,
                    -0.1858942210674286,
                    -0.7298387289047241,
                    -0.3607988655567169,
                    -0.07058173418045044,
                    -1.1697564125061035,
                    0.5601145625114441,
                    0.25983956456184387,
                    0.17692585289478302,
                    -0.04117457941174507
                ],
                [
                    2.6135597229003906,
                    0.8661671280860901,
                    0.1658654510974884,
                    0.1496131867170334,
                    -0.16699358820915222,
                    3.5390400886535645,
                    0.45076829195022583,
                    1.7237287759780884,
                    -0.12780319154262543,
                    0.26655834913253784,
                    0.16189759969711304,
                    0.16266077756881714,
                    0.1436460018157959,
                    -0.3995523750782013
                ],
                [
                    -16.892213821411133,
                    -18.790918350219727,
                    -0.061336759477853775,
                    -0.29338884353637695,
                    -0.011596011929214,
                    -9.407706260681152,
                    -0.9240560531616211,
                    -4.507460117340088,
                    0.04394654557108879,
                    -10.852845191955566,
                    -0.4898695647716522,
                    -0.24942615628242493,
                    -0.09445647150278091,
                    -0.6980793476104736
                ],
                [
                    0.601276695728302,
                    0.024327240884304047,
                    -0.037359535694122314,
                    -0.5017551779747009,
                    0.15453411638736725,
                    0.42024660110473633,
                    0.34802114963531494,
                    0.2613981068134308,
                    0.30640843510627747,
                    0.10969795286655426,
                    0.1732468605041504,
                    -0.022649355232715607,
                    0.3274751901626587,
                    -0.10255478322505951
                ],
                [
                    -6.717259883880615,
                    -48.32388687133789,
                    3.1426680088043213,
                    -0.049041688442230225,
                    -0.17613299190998077,
                    8.02591609954834,
                    14.809418678283691,
                    1.503251314163208,
                    2.223808765411377,
                    -25.015625,
                    34.50824737548828,
                    7.956233978271484,
                    0.526813268661499,
                    -0.7878920435905457
                ],
                [
                    -0.5186328291893005,
                    -0.3758860230445862,
                    -0.18571385741233826,
                    -0.06674132496118546,
                    -0.24759875237941742,
                    -0.07567760348320007,
                    -0.28297096490859985,
                    -0.4023011326789856,
                    -0.05579816550016403,
                    -0.176036536693573,
                    -0.019562680274248123,
                    -0.049986593425273895,
                    -0.11075852066278458,
                    0.16398608684539795
                ],
                [
                    -4.746388912200928,
                    0.13964344561100006,
                    -0.5726144909858704,
                    -0.19287380576133728,
                    -0.6600971221923828,
                    -5.708518028259277,
                    -4.206857204437256,
                    -0.1864033043384552,
                    -0.3472862243652344,
                    0.24553637206554413,
                    5.6728715896606445,
                    0.2532168924808502,
                    0.15803736448287964,
                    -0.26291415095329285
                ],
                [
                    -3.302028179168701,
                    -0.9958509206771851,
                    0.16483823955059052,
                    -0.21063318848609924,
                    0.05407184734940529,
                    -1.662785291671753,
                    -2.5277416706085205,
                    -0.08341392874717712,
                    -0.5234788656234741,
                    -0.8435150980949402,
                    0.7512385845184326,
                    -0.3387862741947174,
                    -0.41878125071525574,
                    -0.2791883945465088
                ],
                [
                    2.912166118621826,
                    0.2597392797470093,
                    -0.11620574444532394,
                    -0.14194072782993317,
                    -0.42215806245803833,
                    1.4502280950546265,
                    0.9194231033325195,
                    1.2401020526885986,
                    -0.06394419074058533,
                    1.0582910776138306,
                    -0.1959666758775711,
                    -0.1657067835330963,
                    -0.011942984536290169,
                    -0.002152007771655917
                ],
                [
                    12.090019226074219,
                    2.906625747680664,
                    3.4485960006713867,
                    -0.08489703387022018,
                    -0.3263985812664032,
                    3.3597288131713867,
                    4.648120403289795,
                    7.248102188110352,
                    -0.05752289667725563,
                    -0.48969370126724243,
                    3.507728099822998,
                    3.219994068145752,
                    0.43055060505867004,
                    0.113449826836586
                ],
                [
                    -5.385495185852051,
                    -6.097631931304932,
                    -0.46318504214286804,
                    -0.16483741998672485,
                    0.011290408670902252,
                    -0.11705388873815536,
                    -0.3457948565483093,
                    0.07111658155918121,
                    0.9119634628295898,
                    -5.251015663146973,
                    5.580617904663086,
                    0.44896557927131653,
                    0.09439616650342941,
                    0.1963721662759781
                ],
                [
                    3.8915977478027344,
                    -0.8626031279563904,
                    0.02255363203585148,
                    -0.22445888817310333,
                    -0.4874924123287201,
                    0.2306622564792633,
                    -0.2549382150173187,
                    -0.008881326764822006,
                    -0.33686336874961853,
                    4.803206443786621,
                    0.29537779092788696,
                    0.517967939376831,
                    0.10539243370294571,
                    0.14154693484306335
                ],
                [
                    -0.600139856338501,
                    -0.4851227402687073,
                    -0.13811838626861572,
                    0.31883004307746887,
                    0.3166384994983673,
                    -0.36394691467285156,
                    -0.16104662418365479,
                    0.08609311282634735,
                    -0.0278997253626585,
                    -0.3216162919998169,
                    -0.12998826801776886,
                    -0.20026205480098724,
                    -0.12645256519317627,
                    0.06798826158046722
                ],
                [
                    -1.6673837900161743,
                    -1.2428451776504517,
                    0.8053057789802551,
                    0.2118363082408905,
                    0.21388931572437286,
                    -0.4815577566623688,
                    -0.36954787373542786,
                    -0.01984597183763981,
                    -0.6579353213310242,
                    -0.7970631718635559,
                    0.3986967206001282,
                    -0.3455119729042053,
                    -0.253167062997818,
                    0.239475280046463
                ],
                [
                    -0.7068951725959778,
                    -0.5851035714149475,
                    -0.17249570786952972,
                    0.1262652724981308,
                    0.28423187136650085,
                    -0.19167743623256683,
                    -0.34940817952156067,
                    -0.3269599378108978,
                    -0.09654995054006577,
                    -0.4778556227684021,
                    0.11761561781167984,
                    -0.36235523223876953,
                    0.2643953263759613,
                    0.35851871967315674
                ],
                [
                    -5.350175380706787,
                    -3.4696662425994873,
                    -4.174038887023926,
                    -0.21669015288352966,
                    0.37298962473869324,
                    -0.6791546940803528,
                    -5.902544021606445,
                    -0.11875995993614197,
                    0.6464635133743286,
                    0.3992476165294647,
                    0.676636278629303,
                    0.25509020686149597,
                    -0.6120456457138062,
                    0.19271932542324066
                ],
                [
                    8.723845481872559,
                    9.8355073928833,
                    -0.5942994356155396,
                    0.4052973985671997,
                    0.5634592175483704,
                    2.2661969661712646,
                    -0.7761964201927185,
                    -0.0057433973997831345,
                    9.141481399536133,
                    0.39495864510536194,
                    2.682323694229126,
                    -0.5821531414985657,
                    0.023017536848783493,
                    0.5492408275604248
                ],
                [
                    -0.8043332099914551,
                    -0.28317561745643616,
                    -0.6084590554237366,
                    0.19504354894161224,
                    -0.07005580514669418,
                    -0.5491934418678284,
                    -1.333512306213379,
                    -0.09979277849197388,
                    -0.49397602677345276,
                    -0.036472588777542114,
                    0.18828485906124115,
                    0.10201257467269897,
                    -0.5360191464424133,
                    0.15254364907741547
                ],
                [
                    -3.1433022022247314,
                    -2.8277130126953125,
                    0.9342194199562073,
                    0.19958986341953278,
                    -0.2584211528301239,
                    -0.5793085694313049,
                    -0.14673851430416107,
                    0.009461547248065472,
                    -3.092961311340332,
                    -0.04758295789361,
                    0.024680739268660545,
                    0.4409610629081726,
                    -0.11610566824674606,
                    -0.07776759564876556
                ],
                [
                    4.078214645385742,
                    1.195834994316101,
                    1.6145490407943726,
                    -0.006351062096655369,
                    0.260179340839386,
                    0.4066368639469147,
                    0.16102232038974762,
                    2.2265093326568604,
                    0.9545652270317078,
                    -0.11859041452407837,
                    0.6035389304161072,
                    0.33193400502204895,
                    -0.021282106637954712,
                    0.4748413562774658
                ],
                [
                    -3.3543217182159424,
                    -1.3671536445617676,
                    0.3235837519168854,
                    0.02843218483030796,
                    0.2270871102809906,
                    -1.167431116104126,
                    -1.7274136543273926,
                    -0.7552644610404968,
                    0.027736390009522438,
                    -1.4861419200897217,
                    4.175280570983887,
                    1.1033011674880981,
                    -0.1939045637845993,
                    -0.1278333067893982
                ],
                [
                    -9.847649574279785,
                    -20.995012283325195,
                    8.220674514770508,
                    -0.09999622404575348,
                    0.1259823739528656,
                    -13.088129997253418,
                    10.313644409179688,
                    2.565516948699951,
                    6.367494106292725,
                    -30.11871337890625,
                    2.5159664154052734,
                    2.6234548091888428,
                    -0.04228787496685982,
                    1.0529643297195435
                ],
                [
                    -7.122035980224609,
                    2.537524461746216,
                    0.18312865495681763,
                    -0.05644674971699715,
                    -0.27173107862472534,
                    -9.690568923950195,
                    -5.148044586181641,
                    0.09772897511720657,
                    -1.8016926050186157,
                    -0.5445873737335205,
                    -2.0441174507141113,
                    2.338893413543701,
                    0.09300610423088074,
                    0.33121079206466675
                ],
                [
                    -1.559337854385376,
                    -1.104417085647583,
                    0.8004733324050903,
                    0.16515569388866425,
                    -0.5126163363456726,
                    -0.1579076200723648,
                    -0.31669074296951294,
                    -0.09338147938251495,
                    -1.0414565801620483,
                    -1.2404985427856445,
                    -0.24841807782649994,
                    0.12230642139911652,
                    0.0051642064936459064,
                    0.18755407631397247
                ],
                [
                    0.9612777829170227,
                    0.4328620135784149,
                    0.06313952058553696,
                    -0.011599643155932426,
                    -0.4734415113925934,
                    1.0791040658950806,
                    0.10589881241321564,
                    -0.15602636337280273,
                    0.5170297026634216,
                    0.5265153646469116,
                    -0.45168253779411316,
                    0.5025651454925537,
                    -0.2752281129360199,
                    0.004596084356307983
                ],
                [
                    -1.2760509252548218,
                    -1.0903513431549072,
                    -0.2933322787284851,
                    0.3254883289337158,
                    -0.0646100789308548,
                    -1.4990016222000122,
                    -0.9992687702178955,
                    -0.4317830204963684,
                    0.25837042927742004,
                    -0.1537269651889801,
                    -0.5428783893585205,
                    -0.11819855123758316,
                    -0.12124944478273392,
                    0.10415498912334442
                ],
                [
                    0.8534591197967529,
                    0.1756523996591568,
                    0.05949215218424797,
                    0.01581287384033203,
                    0.047474317252635956,
                    0.929770827293396,
                    0.5294332504272461,
                    0.07748577743768692,
                    0.09066762775182724,
                    0.2968457043170929,
                    0.010257457382977009,
                    0.1899833083152771,
                    -0.2154337465763092,
                    0.0513872392475605
                ],
                [
                    -2.0712616443634033,
                    0.030800586566329002,
                    -0.1182970479130745,
                    0.07256949692964554,
                    0.3340320885181427,
                    -1.4744428396224976,
                    -0.4028860926628113,
                    0.027180591598153114,
                    -1.143980622291565,
                    -0.5750362873077393,
                    -0.04404740035533905,
                    -0.23910124599933624,
                    -0.06304134428501129,
                    0.05017244443297386
                ],
                [
                    5.321744441986084,
                    4.180185317993164,
                    2.606732130050659,
                    -0.07587320357561111,
                    -0.10402835160493851,
                    0.8182393312454224,
                    5.344360828399658,
                    -0.3067989945411682,
                    -0.33543169498443604,
                    0.11328358203172684,
                    -0.263274610042572,
                    2.0072035789489746,
                    0.004555732477456331,
                    -0.06778716295957565
                ],
                [
                    -3.5155367851257324,
                    -2.1682581901550293,
                    -2.831284999847412,
                    0.05645913630723953,
                    0.21771810948848724,
                    -1.400245189666748,
                    0.2509639859199524,
                    -3.917694568634033,
                    0.0707596018910408,
                    -0.540893018245697,
                    -0.3742883503437042,
                    0.6601682901382446,
                    0.10987362265586853,
                    -0.5250583291053772
                ],
                [
                    -1.124240756034851,
                    -0.19350376725196838,
                    -0.35172295570373535,
                    -0.38598138093948364,
                    -0.02397279068827629,
                    -0.4583032429218292,
                    0.1378365308046341,
                    -0.4213904142379761,
                    -0.2383510172367096,
                    -0.16017360985279083,
                    -0.14105388522148132,
                    0.14537763595581055,
                    0.4712110161781311,
                    -0.10008281469345093
                ],
                [
                    28.411556243896484,
                    40.9490852355957,
                    14.310158729553223,
                    0.2638113796710968,
                    0.10612223297357559,
                    8.884086608886719,
                    23.965425491333008,
                    -0.35360535979270935,
                    -0.029679493978619576,
                    4.224235534667969,
                    -1.5994287729263306,
                    -2.906975507736206,
                    0.046995870769023895,
                    0.03674088045954704
                ],
                [
                    -3.991884231567383,
                    -3.3978447914123535,
                    1.4079738855361938,
                    0.13084891438484192,
                    0.285298228263855,
                    -0.5373502373695374,
                    -0.5954427123069763,
                    -0.4245336353778839,
                    -0.17133766412734985,
                    -3.8844568729400635,
                    -0.35524457693099976,
                    0.46078863739967346,
                    0.8166100382804871,
                    -0.01957358978688717
                ],
                [
                    2.5510215759277344,
                    -0.7666678428649902,
                    0.31601399183273315,
                    0.09699016809463501,
                    -0.29590266942977905,
                    0.45024192333221436,
                    0.9953833222389221,
                    0.26262274384498596,
                    0.6076196432113647,
                    1.2814288139343262,
                    -0.5254314541816711,
                    0.029937537387013435,
                    -0.02890540286898613,
                    0.3064873516559601
                ],
                [
                    2.340029716491699,
                    0.9842849969863892,
                    1.2381852865219116,
                    0.14514656364917755,
                    0.4301883280277252,
                    1.297209620475769,
                    0.651048481464386,
                    1.0766618251800537,
                    0.38006511330604553,
                    0.8039485812187195,
                    1.0287519693374634,
                    -0.353290855884552,
                    -0.17926733195781708,
                    0.5408375859260559
                ],
                [
                    -0.7977316975593567,
                    -0.01628788374364376,
                    0.08454842120409012,
                    -0.389693945646286,
                    0.2575622797012329,
                    -0.1049550473690033,
                    -0.3924424350261688,
                    0.11914213746786118,
                    0.288507878780365,
                    -0.0484687015414238,
                    0.17868171632289886,
                    -0.2220507264137268,
                    -0.6762673258781433,
                    -0.5453634858131409
                ],
                [
                    2.291572093963623,
                    1.371569037437439,
                    0.5704503059387207,
                    -0.40204817056655884,
                    -0.6858556270599365,
                    8.102729797363281,
                    1.60422945022583,
                    -0.1786433905363083,
                    -0.45165324211120605,
                    2.461421489715576,
                    -0.02456495352089405,
                    0.17455410957336426,
                    -0.18932311236858368,
                    -0.19651192426681519
                ],
                [
                    -0.514376163482666,
                    -0.02842812053859234,
                    0.13854888081550598,
                    0.22944515943527222,
                    -0.46372365951538086,
                    -0.11084775626659393,
                    -0.13212361931800842,
                    -0.2876916825771332,
                    -0.0925060287117958,
                    -0.14139819145202637,
                    0.2698570787906647,
                    -0.24703367054462433,
                    -0.27944454550743103,
                    -0.31640928983688354
                ],
                [
                    -2.566930055618286,
                    -1.345367431640625,
                    0.44471681118011475,
                    -0.05408763140439987,
                    0.08948066830635071,
                    -1.8114334344863892,
                    -0.5160677433013916,
                    -0.3127942979335785,
                    -1.0316402912139893,
                    -0.5662230849266052,
                    -0.2249028980731964,
                    -0.4462297260761261,
                    0.6387661099433899,
                    -0.1974022537469864
                ],
                [
                    -1.4613642692565918,
                    -0.6823160648345947,
                    -0.23496444523334503,
                    0.054493192583322525,
                    -0.022478412836790085,
                    -3.5276970863342285,
                    -1.8996171951293945,
                    -0.29631227254867554,
                    0.48676183819770813,
                    0.36654263734817505,
                    0.041908685117959976,
                    -0.5150731205940247,
                    -0.011175538413226604,
                    0.3219611644744873
                ],
                [
                    -0.7438898682594299,
                    -0.06069668382406235,
                    -0.05336230993270874,
                    -0.3977888226509094,
                    0.6335797309875488,
                    -0.08056697249412537,
                    -0.43847617506980896,
                    0.32014861702919006,
                    -0.2848312556743622,
                    -0.0595424510538578,
                    0.26419687271118164,
                    0.00891946628689766,
                    -0.17793412506580353,
                    0.7162063717842102
                ],
                [
                    -0.7608802318572998,
                    -0.5874813199043274,
                    0.5189363360404968,
                    -0.018387332558631897,
                    0.026793809607625008,
                    -0.8129971623420715,
                    -0.6905605792999268,
                    -0.059089817106723785,
                    0.04515654966235161,
                    -0.14402271807193756,
                    0.06804875284433365,
                    -0.18244288861751556,
                    -0.1851573884487152,
                    0.07831515371799469
                ],
                [
                    -1.623206377029419,
                    -1.623795509338379,
                    -0.6475797891616821,
                    0.19185271859169006,
                    -0.30914467573165894,
                    -8.703104972839355,
                    -1.5039275884628296,
                    -0.18232934176921844,
                    0.770842969417572,
                    -1.0104470252990723,
                    -1.733372449874878,
                    -0.41257244348526,
                    0.11618438363075256,
                    -0.2068464457988739
                ],
                [
                    -5.689202308654785,
                    -3.823777675628662,
                    -2.629530191421509,
                    0.2649839520454407,
                    0.6571400761604309,
                    -0.014419480226933956,
                    -0.4607701003551483,
                    -3.1131675243377686,
                    0.31355899572372437,
                    -2.161776304244995,
                    -4.147042751312256,
                    0.4550265371799469,
                    -0.23190219700336456,
                    0.040536295622587204
                ],
                [
                    -2.209923267364502,
                    -2.385533332824707,
                    0.3700456917285919,
                    -0.012051982805132866,
                    -0.4938107132911682,
                    -0.15194575488567352,
                    0.2550561726093292,
                    -2.249269485473633,
                    -0.6335934996604919,
                    0.28895536065101624,
                    2.83268141746521,
                    0.49682918190956116,
                    -0.0785231813788414,
                    -0.08010998368263245
                ],
                [
                    3.4994232654571533,
                    2.805161476135254,
                    1.1691677570343018,
                    0.24313662946224213,
                    0.030273260548710823,
                    1.2705832719802856,
                    1.0282211303710938,
                    2.721940755844116,
                    0.30842724442481995,
                    0.366371214389801,
                    0.11195682734251022,
                    0.6483038663864136,
                    0.2961864173412323,
                    -0.17347022891044617
                ],
                [
                    -0.627356231212616,
                    0.25493547320365906,
                    -0.024724366143345833,
                    0.2836095094680786,
                    -0.16931475698947906,
                    -0.11744540184736252,
                    -0.2555145025253296,
                    -0.4886978268623352,
                    -0.35955503582954407,
                    -0.5722684264183044,
                    0.15179410576820374,
                    -0.12747173011302948,
                    0.24465681612491608,
                    0.015630731359124184
                ],
                [
                    -9.85215950012207,
                    -8.310919761657715,
                    -0.18436069786548615,
                    0.5023969411849976,
                    0.08217930793762207,
                    -0.7214934825897217,
                    -0.1720941960811615,
                    -9.512750625610352,
                    0.008560013957321644,
                    -0.03591138496994972,
                    -0.11577450484037399,
                    -0.44700026512145996,
                    0.26425641775131226,
                    -0.22781382501125336
                ],
                [
                    -2.3726212978363037,
                    -4.695420742034912,
                    1.100871205329895,
                    0.3045560121536255,
                    0.6446109414100647,
                    -2.475222587585449,
                    -1.4070172309875488,
                    -0.8493326306343079,
                    -0.7136148810386658,
                    -0.09632019698619843,
                    -0.4833892285823822,
                    0.38924604654312134,
                    0.11932672560214996,
                    0.31922343373298645
                ],
                [
                    -1.1102876663208008,
                    -0.42008092999458313,
                    0.24421218037605286,
                    -0.2999012768268585,
                    -0.42504972219467163,
                    -0.5684592723846436,
                    -0.4890151023864746,
                    0.09378688782453537,
                    0.029416220262646675,
                    -0.3906787037849426,
                    -0.2582894563674927,
                    0.08605945110321045,
                    -0.13641154766082764,
                    0.4286542236804962
                ],
                [
                    -13.641831398010254,
                    -13.353840827941895,
                    0.6467224955558777,
                    0.29757845401763916,
                    -0.3806576430797577,
                    -24.981351852416992,
                    -0.06425550580024719,
                    0.13914035260677338,
                    0.06670323014259338,
                    -14.543631553649902,
                    -0.16552448272705078,
                    0.2622181177139282,
                    -0.2250100076198578,
                    -0.2937403619289398
                ],
                [
                    -1.1520313024520874,
                    -1.66208016872406,
                    0.6467140913009644,
                    -0.14003963768482208,
                    0.007456002291291952,
                    -0.41579821705818176,
                    -0.6110058426856995,
                    -0.4856540858745575,
                    -0.23469091951847076,
                    -0.5892890095710754,
                    1.565146803855896,
                    -0.5380517244338989,
                    -0.5279706120491028,
                    -0.0777440145611763
                ],
                [
                    -0.717408299446106,
                    -0.5343500375747681,
                    -0.41414621472358704,
                    0.12588688731193542,
                    -0.02617502212524414,
                    -0.18208257853984833,
                    0.4712887406349182,
                    0.002966889413073659,
                    -0.453997403383255,
                    -0.561647891998291,
                    0.30768388509750366,
                    -0.1559571623802185,
                    -0.1882823407649994,
                    0.20139268040657043
                ],
                [
                    -4.408224105834961,
                    -2.553205728530884,
                    2.9461264610290527,
                    -0.04878906160593033,
                    0.09478791803121567,
                    -24.69361114501953,
                    -0.3414447605609894,
                    -1.6551650762557983,
                    3.460498094558716,
                    -6.511636257171631,
                    -2.0580899715423584,
                    0.10136828571557999,
                    -0.10910030454397202,
                    -0.44391316175460815
                ],
                [
                    8.182924270629883,
                    -0.36778709292411804,
                    -0.1764674186706543,
                    -0.0963549017906189,
                    -0.3219066560268402,
                    14.102813720703125,
                    5.827647686004639,
                    4.455932140350342,
                    -5.907689094543457,
                    4.056535243988037,
                    -5.061574459075928,
                    -0.3883095681667328,
                    -0.4871194362640381,
                    1.1992266178131104
                ],
                [
                    -3.885199546813965,
                    0.9316368699073792,
                    -0.3042282164096832,
                    0.3336418867111206,
                    -0.2454424798488617,
                    -0.08324357122182846,
                    -2.3623714447021484,
                    -0.10537038743495941,
                    -0.2880774438381195,
                    -0.9019632935523987,
                    -1.973423719406128,
                    0.2406662106513977,
                    0.11275309324264526,
                    -0.07792695611715317
                ],
                [
                    -1.0396013259887695,
                    -0.9631348848342896,
                    -0.2946890592575073,
                    -0.203533336520195,
                    0.26293426752090454,
                    -0.37062209844589233,
                    0.4636472463607788,
                    -0.21522976458072662,
                    -0.4224424660205841,
                    -0.18686354160308838,
                    0.04679122567176819,
                    0.0630974993109703,
                    -0.03719867765903473,
                    -0.03421048820018768
                ],
                [
                    2.5298266410827637,
                    -0.3771398663520813,
                    0.10613956302404404,
                    -0.3441160321235657,
                    -0.29902714490890503,
                    1.502469539642334,
                    0.3098832666873932,
                    -0.12174645811319351,
                    0.16674193739891052,
                    0.8208757638931274,
                    -0.33615270256996155,
                    0.12318364530801773,
                    0.1509794294834137,
                    0.22539469599723816
                ],
                [
                    9.32290267944336,
                    2.4342763423919678,
                    4.771545886993408,
                    -0.20753681659698486,
                    0.11682243645191193,
                    3.373706817626953,
                    6.681887626647949,
                    0.02068312279880047,
                    -0.5157211422920227,
                    2.0026822090148926,
                    -0.42242830991744995,
                    1.057580828666687,
                    -0.2854805886745453,
                    0.1804913729429245
                ],
                [
                    -1.4379163980484009,
                    -0.16630300879478455,
                    0.38815537095069885,
                    -0.14263895153999329,
                    -0.46546268463134766,
                    -0.47996941208839417,
                    0.15249285101890564,
                    -0.19985941052436829,
                    -1.5754646062850952,
                    -0.6431286334991455,
                    -0.13416656851768494,
                    0.068576380610466,
                    0.1649446189403534,
                    0.10503021627664566
                ],
                [
                    5.274808883666992,
                    0.5715440511703491,
                    -0.13594092428684235,
                    -0.313676118850708,
                    -0.15770918130874634,
                    0.9297289252281189,
                    -0.0010242890566587448,
                    1.643670916557312,
                    0.6555852890014648,
                    2.186434268951416,
                    1.2515681982040405,
                    2.7054944038391113,
                    -0.13129635155200958,
                    0.4034069776535034
                ],
                [
                    1.2765880823135376,
                    0.020400185137987137,
                    0.1913262903690338,
                    -0.33968275785446167,
                    -0.006080657243728638,
                    1.3572722673416138,
                    1.8083897829055786,
                    0.5146657228469849,
                    -0.16888028383255005,
                    0.3945154547691345,
                    0.04074531048536301,
                    0.3680635690689087,
                    -0.10273853689432144,
                    -0.19778066873550415
                ]
            ]
        },
        {
            "activation": 0,
            "biases": [
                -4.06458854675293,
                -4.023094654083252,
                -3.93704891204834,
                -3.9141335487365723,
                -4.497426986694336,
                -4.159900665283203,
                -4.205185413360596,
                -3.617784023284912,
                -4.127898693084717
            ],
            "inputSize": 64,
            "outputSize": 9,
            "weights": [
                [
                    0.07644948363304138,
                    -3.522642135620117,
                    -0.6501251459121704,
                    -3.536437749862671,
                    -7.115168571472168,
                    -3.5326240062713623,
                    6.714662075042725,
                    -0.11062036454677582,
                    -1.129454493522644,
                    -1.1492818593978882,
                    -3.9052951335906982,
                    -3.9892055988311768,
                    -1.4659054279327393,
                    -6.752784252166748,
                    -0.04947913438081741,
                    -0.03640926256775856,
                    -0.16116444766521454,
                    0.2047102302312851,
                    -4.3419036865234375,
                    -0.3663066327571869,
                    -0.1661413460969925,
                    -8.076021194458008,
                    -0.8104708790779114,
                    -5.016406059265137,
                    0.026220014318823814,
                    -2.7618355751037598,
                    -3.917705535888672,
                    0.1090756356716156,
                    -1.7334434986114502,
                    -0.7974153757095337,
                    -3.2728779315948486,
                    -1.908663272857666,
                    -0.5495017170906067,
                    -3.3925399780273438,
                    -0.24922534823417664,
                    -3.957345962524414,
                    -3.910076856613159,
                    -0.021938752382993698,
                    -1.0756458044052124,
                    0.2284056842327118,
                    -0.5062064528465271,
                    -0.7153792977333069,
                    -0.021225634962320328,
                    -0.47860032320022583,
                    -1.9166221618652344,
                    4.752140522003174,
                    -0.6003125309944153,
                    -4.1703901290893555,
                    0.12084522098302841,
                    -0.6743749976158142,
                    -0.8412296175956726,
                    -0.36059054732322693,
                    -0.2431318759918213,
                    -0.9386892914772034,
                    -0.5045133829116821,
                    -4.675862789154053,
                    -5.404422760009766,
                    -0.1588330864906311,
                    -0.04705900698900223,
                    -3.691030502319336,
                    -3.9410910606384277,
                    -0.2289721667766571,
                    -4.241786003112793,
                    -3.927887439727783
                ],
                [
                    0.04201070964336395,
                    -3.4792592525482178,
                    -1.0498020648956299,
                    -3.501756191253662,
                    -8.037986755371094,
                    -3.1419878005981445,
                    9.328004837036133,
                    0.08586142957210541,
                    -1.1180064678192139,
                    -1.107531189918518,
                    -3.578411817550659,
                    -4.59168004989624,
                    -0.8430991172790527,
                    -6.50852632522583,
                    0.08191407471895218,
                    -0.47748705744743347,
                    -0.26659518480300903,
                    0.16199947893619537,
                    -3.902780294418335,
                    -0.6578682661056519,
                    -0.3055363595485687,
                    -8.592477798461914,
                    -1.1699371337890625,
                    -5.674858093261719,
                    -0.0877385139465332,
                    -3.2410731315612793,
                    -3.9660491943359375,
                    0.14195838570594788,
                    -1.7309434413909912,
                    -0.7003993988037109,
                    -3.193368673324585,
                    -1.470443844795227,
                    -0.7375601530075073,
                    -3.292393922805786,
                    -0.0301767997443676,
                    -4.105347156524658,
                    -4.161691665649414,
                    -0.06813975423574448,
                    -1.6064778566360474,
                    0.14263859391212463,
                    -0.715516984462738,
                    -0.8799459338188171,
                    0.053385552018880844,
                    -0.34701117873191833,
                    -2.0437393188476563,
                    4.792967319488525,
                    -0.2714592218399048,
                    -4.105549335479736,
                    0.07502128928899765,
                    -0.8442420363426208,
                    -0.9278069734573364,
                    -0.6582443118095398,
                    -0.05778525397181511,
                    -1.0651451349258423,
                    -0.18416917324066162,
                    -3.8175010681152344,
                    -4.920232772827148,
                    -0.26455771923065186,
                    -0.2714192271232605,
                    -3.588390827178955,
                    -4.019608497619629,
                    -0.37699225544929504,
                    -3.904512643814087,
                    -4.077291488647461
                ],
                [
                    0.10058323293924332,
                    -2.8259811401367188,
                    -0.7160326242446899,
                    -3.2483012676239014,
                    -6.742722034454346,
                    -3.282536506652832,
                    8.277032852172852,
                    -0.15215937793254852,
                    -1.1502856016159058,
                    -1.2847955226898193,
                    -3.5429275035858154,
                    -2.6143922805786133,
                    -0.7534489035606384,
                    -6.36236572265625,
                    0.16876298189163208,
                    -0.4098745584487915,
                    -0.5918168425559998,
                    -0.15343137085437775,
                    -4.279164791107178,
                    -0.8302129507064819,
                    -0.41400596499443054,
                    -7.534711837768555,
                    -1.327235221862793,
                    -2.9329214096069336,
                    0.7354273200035095,
                    -3.612043619155884,
                    -3.845881938934326,
                    -0.27553483843803406,
                    -1.4584050178527832,
                    -1.3833398818969727,
                    -2.857003927230835,
                    -1.2813031673431396,
                    -0.9263506531715393,
                    -2.637775182723999,
                    -0.39314720034599304,
                    -3.907728672027588,
                    -4.132071495056152,
                    -0.04798227176070213,
                    -0.9608696699142456,
                    -0.08141324669122696,
                    -0.46263644099235535,
                    -0.8180603384971619,
                    0.013618551194667816,
                    -0.783189058303833,
                    -1.8721354007720947,
                    4.698038101196289,
                    0.2599236071109772,
                    -3.714869737625122,
                    -0.1420920342206955,
                    -1.0948535203933716,
                    0.3002965450286865,
                    -0.9411897659301758,
                    -0.578711211681366,
                    -0.28267353773117065,
                    0.32269126176834106,
                    -4.860912322998047,
                    -3.7086784839630127,
                    -0.32974934577941895,
                    0.38574305176734924,
                    -2.937896728515625,
                    -3.51309871673584,
                    -0.28102684020996094,
                    -3.94529128074646,
                    -4.233476638793945
                ],
                [
                    0.23858125507831573,
                    -4.336218357086182,
                    -0.8164099454879761,
                    -3.899139881134033,
                    -7.676933765411377,
                    -3.4548370838165283,
                    9.155134201049805,
                    0.04400697350502014,
                    -0.7563097476959229,
                    -0.9621571898460388,
                    -3.7509305477142334,
                    -5.624837875366211,
                    -1.4996047019958496,
                    -6.287414073944092,
                    0.2978845238685608,
                    -0.14971598982810974,
                    -0.2657146453857422,
                    -0.1664767563343048,
                    -3.8634769916534424,
                    -0.10828401148319244,
                    -0.08699682354927063,
                    -8.264351844787598,
                    -0.6933843493461609,
                    -5.465124607086182,
                    0.15683038532733917,
                    -3.1938695907592773,
                    -3.9050650596618652,
                    -0.036994487047195435,
                    -1.7255018949508667,
                    -0.9338887333869934,
                    -2.7783145904541016,
                    -1.5241882801055908,
                    -0.4186451733112335,
                    -3.3021888732910156,
                    -0.02268139272928238,
                    -4.032610893249512,
                    -3.9747021198272705,
                    0.04430102929472923,
                    -1.7978599071502686,
                    0.10942061990499496,
                    -0.07333757728338242,
                    -0.39289724826812744,
                    0.026626529172062874,
                    -0.3297230005264282,
                    -1.5227317810058594,
                    5.314033031463623,
                    -0.3777521550655365,
                    -3.768418550491333,
                    -0.0788005068898201,
                    -0.5492162704467773,
                    -0.8619771003723145,
                    -0.25803253054618835,
                    -0.06654922664165497,
                    -0.8216921091079712,
                    -0.16997894644737244,
                    -3.872391700744629,
                    -5.427900314331055,
                    -0.027293963357806206,
                    -0.12345732003450394,
                    -3.4351861476898193,
                    -3.8366682529449463,
                    0.3795623481273651,
                    -4.018853664398193,
                    -3.70215106010437
                ],
                [
                    0.04937880486249924,
                    -4.645732879638672,
                    -1.1686484813690186,
                    -4.233140468597412,
                    -6.93118143081665,
                    -3.7930917739868164,
                    8.773968696594238,
                    0.20410189032554626,
                    -2.0949349403381348,
                    -0.17004309594631195,
                    -5.045269012451172,
                    -4.657634735107422,
                    -1.3532233238220215,
                    -7.988958358764648,
                    -0.46082937717437744,
                    -1.1552634239196777,
                    -0.1253570020198822,
                    -0.04209527745842934,
                    -4.493582248687744,
                    -0.9061042666435242,
                    -0.8933937549591064,
                    -11.963908195495605,
                    1.251206874847412,
                    -5.242461204528809,
                    1.572994589805603,
                    -3.3639492988586426,
                    -4.522839546203613,
                    0.2780790328979492,
                    -2.125295400619507,
                    -1.260559320449829,
                    -3.0902915000915527,
                    -2.0960872173309326,
                    -0.8878430724143982,
                    -3.6099414825439453,
                    -0.5678964853286743,
                    -4.5914387702941895,
                    -4.125533103942871,
                    -0.1935068517923355,
                    -1.4118492603302002,
                    -0.1892492175102234,
                    -1.0241047143936157,
                    -0.6716027855873108,
                    -0.008173718117177486,
                    -0.6444053053855896,
                    -2.0278396606445313,
                    4.799099922180176,
                    -0.8355312347412109,
                    -4.6124773025512695,
                    -0.2771329879760742,
                    1.9540935754776,
                    -1.992817759513855,
                    -0.907223105430603,
                    -2.513590097427368,
                    -1.4847790002822876,
                    -0.6544053554534912,
                    -3.3768112659454346,
                    -4.941170692443848,
                    -0.3453216850757599,
                    -0.5742426514625549,
                    -4.99479866027832,
                    -1.7178486585617065,
                    -0.09100483357906342,
                    -4.624814510345459,
                    -4.0785393714904785
                ],
                [
                    0.11381208151578903,
                    -4.860433101654053,
                    -0.7518462538719177,
                    -3.433934450149536,
                    -8.397008895874023,
                    -3.6528937816619873,
                    8.162038803100586,
                    -0.12161355465650558,
                    -1.3167816400527954,
                    -1.004891037940979,
                    -3.6470086574554443,
                    -3.3774008750915527,
                    -0.8312622904777527,
                    -6.728960990905762,
                    -0.15157465636730194,
                    -0.047974538058042526,
                    -0.43669623136520386,
                    -0.005940834525972605,
                    -4.14271354675293,
                    -0.6850836277008057,
                    0.05845183506608009,
                    -8.55600643157959,
                    -1.0926264524459839,
                    -3.5603528022766113,
                    0.2291203886270523,
                    -2.650783061981201,
                    -4.202073574066162,
                    0.1681889295578003,
                    -2.5778896808624268,
                    -0.9501647353172302,
                    -2.8100717067718506,
                    -1.6117477416992188,
                    -0.5447112917900085,
                    -3.061096429824829,
                    -0.050472766160964966,
                    -4.222830772399902,
                    -4.239701271057129,
                    0.05684836953878403,
                    -1.7646410465240479,
                    -0.04587850719690323,
                    -0.4224979281425476,
                    -0.6536288857460022,
                    0.14799770712852478,
                    -0.3157360255718231,
                    -1.872106671333313,
                    4.697086811065674,
                    -0.4832085072994232,
                    -4.028054714202881,
                    -0.04348379373550415,
                    -0.8819406628608704,
                    -0.6978102922439575,
                    -0.7120409607887268,
                    -0.3585823178291321,
                    -0.4019836187362671,
                    -0.0855267122387886,
                    -3.748053789138794,
                    -3.541297197341919,
                    -0.23130486905574799,
                    -0.10520552843809128,
                    -3.6341559886932373,
                    -4.122143268585205,
                    -0.37538838386535645,
                    -4.47853946685791,
                    -3.89320707321167
                ],
                [
                    1.77638578414917,
                    -2.598562479019165,
                    1.7423604726791382,
                    -3.7529921531677246,
                    -7.07802152633667,
                    -3.3421361446380615,
                    7.514054298400879,
                    0.0697280615568161,
                    -0.6385954022407532,
                    -0.49158817529678345,
                    -4.1962103843688965,
                    -5.348435878753662,
                    -0.5345737338066101,
                    -7.721562385559082,
                    0.2591891288757324,
                    0.004447396844625473,
                    -0.8307716250419617,
                    -0.2736068069934845,
                    -4.203194618225098,
                    -1.1225833892822266,
                    0.02406274527311325,
                    -11.631491661071777,
                    -1.2415447235107422,
                    -5.859355449676514,
                    -0.4918493628501892,
                    -3.31447696685791,
                    -4.255023002624512,
                    0.0835643857717514,
                    -2.0552752017974854,
                    -1.6266515254974365,
                    -3.263812303543091,
                    -1.1879441738128662,
                    -0.7749838829040527,
                    -3.4162209033966064,
                    0.07494264096021652,
                    -4.36733341217041,
                    -4.392200946807861,
                    -0.007200861349701881,
                    -2.46046781539917,
                    -0.16536200046539307,
                    -0.6763008832931519,
                    2.131075143814087,
                    -0.023388341069221497,
                    -1.2468153238296509,
                    -2.0789246559143066,
                    4.858963966369629,
                    0.6169334650039673,
                    -5.074644088745117,
                    0.09986432641744614,
                    -0.46811264753341675,
                    -2.778672456741333,
                    -1.032460331916809,
                    -0.30066537857055664,
                    0.5179688930511475,
                    -0.40928876399993896,
                    -3.813960313796997,
                    -5.707446575164795,
                    -0.6066907048225403,
                    -0.7720646858215332,
                    -4.155486583709717,
                    -4.1001057624816895,
                    -0.4031108319759369,
                    -4.230392932891846,
                    -4.032054901123047
                ],
                [
                    0.13407322764396667,
                    -4.051839351654053,
                    -0.7748128175735474,
                    -3.735262632369995,
                    -8.299848556518555,
                    -3.171618700027466,
                    13.31057357788086,
                    -0.04719977453351021,
                    -0.787297248840332,
                    -0.9637163281440735,
                    -3.4272279739379883,
                    -8.206331253051758,
                    -1.5422635078430176,
                    -7.805715560913086,
                    0.08830902725458145,
                    -0.18337228894233704,
                    -0.6739161610603333,
                    -2.352698802947998,
                    -3.624500274658203,
                    -0.8321300745010376,
                    -0.21048106253147125,
                    -8.407593727111816,
                    -1.200458288192749,
                    -2.397968292236328,
                    -0.8147731423377991,
                    -2.856566905975342,
                    -3.6569571495056152,
                    0.004601390101015568,
                    -1.3335496187210083,
                    -0.7697596549987793,
                    -2.4800963401794434,
                    -3.8660404682159424,
                    -0.8197300434112549,
                    -2.3129310607910156,
                    -0.3926559090614319,
                    -3.7638752460479736,
                    -3.6690685749053955,
                    -0.08365067839622498,
                    -1.425890326499939,
                    0.09909249097108841,
                    -0.46175962686538696,
                    -0.3193182051181793,
                    -0.013005135580897331,
                    -0.5785614848136902,
                    -1.2847239971160889,
                    5.153285980224609,
                    -0.5569214224815369,
                    -3.2987632751464844,
                    -0.10775686055421829,
                    -0.5409210920333862,
                    -0.7888259291648865,
                    -0.8733975887298584,
                    -0.6173144578933716,
                    -0.6556021571159363,
                    -0.596595287322998,
                    -4.744515895843506,
                    -8.477679252624512,
                    -0.29859110713005066,
                    -0.6190199851989746,
                    -3.442868709564209,
                    -3.3717050552368164,
                    -0.5637001991271973,
                    -3.7169406414031982,
                    -3.4698262214660645
                ],
                [
                    0.2235928773880005,
                    -5.409189224243164,
                    -0.9378935694694519,
                    -3.7554097175598145,
                    -7.953192234039307,
                    -3.931295394897461,
                    9.819906234741211,
                    -0.1821071207523346,
                    -1.835471272468567,
                    -0.8901678323745728,
                    -4.2794718742370605,
                    -6.84342622756958,
                    -1.3028371334075928,
                    -6.844066619873047,
                    -0.07296813279390335,
                    -0.33853593468666077,
                    -0.22466672956943512,
                    0.16223083436489105,
                    -4.411061763763428,
                    -0.35724660754203796,
                    -0.10852202773094177,
                    -8.66293716430664,
                    -1.2154017686843872,
                    -4.876510143280029,
                    -0.24204349517822266,
                    -3.0787041187286377,
                    -3.8995273113250732,
                    0.07555443048477173,
                    -2.346137285232544,
                    -1.2135957479476929,
                    -3.1134390830993652,
                    -1.8639789819717407,
                    -0.46497678756713867,
                    -3.4058992862701416,
                    -0.11260676383972168,
                    -3.971325159072876,
                    -4.020961761474609,
                    0.15757787227630615,
                    -1.9568545818328857,
                    0.06741554290056229,
                    -0.221066415309906,
                    -0.23021231591701508,
                    -0.09557300806045532,
                    -0.5094844102859497,
                    -1.8220901489257813,
                    5.248471736907959,
                    1.3280174732208252,
                    -4.43489408493042,
                    -0.1480238288640976,
                    -0.6937090158462524,
                    -0.17401082813739777,
                    -0.539474368095398,
                    -0.32817137241363525,
                    -0.8467154502868652,
                    -0.23098313808441162,
                    -4.68982458114624,
                    -6.564551830291748,
                    -0.28044393658638,
                    -0.15528707206249237,
                    -3.6523053646087646,
                    -3.9349608421325684,
                    -0.2154531627893448,
                    -4.2062530517578125,
                    -3.978025197982788
                ]
            ]
        }
    ]
}